digraph Tree {
node [shape=box] ;
0 [label="X[2] <= 0.289\nmse = 0.018\nsamples = 2462\nvalue = 0.13"] ;
1 [label="X[2] <= 0.165\nmse = 0.036\nsamples = 326\nvalue = 0.329"] ;
0 -> 1 [labeldistance=2.5, labelangle=45, headlabel="True"] ;
2 [label="X[6] <= 0.296\nmse = 0.034\nsamples = 54\nvalue = 0.507"] ;
1 -> 2 ;
3 [label="X[6] <= 0.133\nmse = 0.027\nsamples = 52\nvalue = 0.524"] ;
2 -> 3 ;
4 [label="X[6] <= 0.084\nmse = 0.025\nsamples = 45\nvalue = 0.554"] ;
3 -> 4 ;
5 [label="mse = 0.0\nsamples = 3\nvalue = 1.0"] ;
4 -> 5 ;
6 [label="X[0] <= 0.285\nmse = 0.011\nsamples = 42\nvalue = 0.522"] ;
4 -> 6 ;
7 [label="mse = -0.0\nsamples = 14\nvalue = 0.498"] ;
6 -> 7 ;
8 [label="X[3] <= 0.945\nmse = 0.017\nsamples = 28\nvalue = 0.534"] ;
6 -> 8 ;
9 [label="mse = 0.0\nsamples = 16\nvalue = 0.498"] ;
8 -> 9 ;
10 [label="X[5] <= 0.985\nmse = 0.035\nsamples = 12\nvalue = 0.582"] ;
8 -> 10 ;
11 [label="mse = -0.0\nsamples = 10\nvalue = 0.498"] ;
10 -> 11 ;
12 [label="mse = 0.0\nsamples = 2\nvalue = 1.0"] ;
10 -> 12 ;
13 [label="mse = 0.0\nsamples = 7\nvalue = 0.331"] ;
3 -> 13 ;
14 [label="X[5] <= 0.983\nmse = 0.0\nsamples = 2\nvalue = 0.053"] ;
2 -> 14 ;
15 [label="mse = 0.0\nsamples = 1\nvalue = 0.061"] ;
14 -> 15 ;
16 [label="mse = 0.0\nsamples = 1\nvalue = 0.044"] ;
14 -> 16 ;
17 [label="X[2] <= 0.241\nmse = 0.029\nsamples = 272\nvalue = 0.294"] ;
1 -> 17 ;
18 [label="X[2] <= 0.174\nmse = 0.03\nsamples = 140\nvalue = 0.357"] ;
17 -> 18 ;
19 [label="X[6] <= 0.191\nmse = 0.033\nsamples = 60\nvalue = 0.41"] ;
18 -> 19 ;
20 [label="X[1] <= 0.209\nmse = 0.032\nsamples = 44\nvalue = 0.449"] ;
19 -> 20 ;
21 [label="X[4] <= 0.748\nmse = 0.037\nsamples = 19\nvalue = 0.49"] ;
20 -> 21 ;
22 [label="X[3] <= 0.398\nmse = 0.005\nsamples = 4\nvalue = 0.373"] ;
21 -> 22 ;
23 [label="mse = 0.0\nsamples = 1\nvalue = 0.498"] ;
22 -> 23 ;
24 [label="mse = 0.0\nsamples = 3\nvalue = 0.331"] ;
22 -> 24 ;
25 [label="X[1] <= 0.049\nmse = 0.04\nsamples = 15\nvalue = 0.521"] ;
21 -> 25 ;
26 [label="X[5] <= 0.935\nmse = 0.027\nsamples = 5\nvalue = 0.465"] ;
25 -> 26 ;
27 [label="mse = 0.0\nsamples = 1\nvalue = 0.666"] ;
26 -> 27 ;
28 [label="X[0] <= 0.515\nmse = 0.021\nsamples = 4\nvalue = 0.415"] ;
26 -> 28 ;
29 [label="mse = 0.0\nsamples = 3\nvalue = 0.331"] ;
28 -> 29 ;
30 [label="mse = -0.0\nsamples = 1\nvalue = 0.666"] ;
28 -> 30 ;
31 [label="X[5] <= 0.827\nmse = 0.045\nsamples = 10\nvalue = 0.549"] ;
25 -> 31 ;
32 [label="X[6] <= 0.147\nmse = 0.007\nsamples = 2\nvalue = 0.582"] ;
31 -> 32 ;
33 [label="mse = 0.0\nsamples = 1\nvalue = 0.498"] ;
32 -> 33 ;
34 [label="mse = -0.0\nsamples = 1\nvalue = 0.666"] ;
32 -> 34 ;
35 [label="X[5] <= 0.941\nmse = 0.054\nsamples = 8\nvalue = 0.54"] ;
31 -> 35 ;
36 [label="X[3] <= 0.914\nmse = 0.056\nsamples = 4\nvalue = 0.666"] ;
35 -> 36 ;
37 [label="mse = 0.0\nsamples = 1\nvalue = 0.331"] ;
36 -> 37 ;
38 [label="X[3] <= 0.944\nmse = 0.025\nsamples = 3\nvalue = 0.777"] ;
36 -> 38 ;
39 [label="mse = 0.0\nsamples = 1\nvalue = 0.666"] ;
38 -> 39 ;
40 [label="X[4] <= 0.944\nmse = 0.028\nsamples = 2\nvalue = 0.833"] ;
38 -> 40 ;
41 [label="mse = 0.0\nsamples = 1\nvalue = 1.0"] ;
40 -> 41 ;
42 [label="mse = 0.0\nsamples = 1\nvalue = 0.666"] ;
40 -> 42 ;
43 [label="X[5] <= 0.955\nmse = 0.021\nsamples = 4\nvalue = 0.415"] ;
35 -> 43 ;
44 [label="mse = 0.0\nsamples = 1\nvalue = 0.666"] ;
43 -> 44 ;
45 [label="mse = -0.0\nsamples = 3\nvalue = 0.331"] ;
43 -> 45 ;
46 [label="X[3] <= 0.729\nmse = 0.027\nsamples = 25\nvalue = 0.418"] ;
20 -> 46 ;
47 [label="X[3] <= 0.413\nmse = 0.048\nsamples = 7\nvalue = 0.498"] ;
46 -> 47 ;
48 [label="X[6] <= 0.154\nmse = 0.005\nsamples = 4\nvalue = 0.457"] ;
47 -> 48 ;
49 [label="mse = 0.0\nsamples = 3\nvalue = 0.498"] ;
48 -> 49 ;
50 [label="mse = 0.0\nsamples = 1\nvalue = 0.331"] ;
48 -> 50 ;
51 [label="X[4] <= 0.856\nmse = 0.099\nsamples = 3\nvalue = 0.554"] ;
47 -> 51 ;
52 [label="mse = 0.0\nsamples = 2\nvalue = 0.331"] ;
51 -> 52 ;
53 [label="mse = 0.0\nsamples = 1\nvalue = 1.0"] ;
51 -> 53 ;
54 [label="X[3] <= 0.816\nmse = 0.016\nsamples = 18\nvalue = 0.387"] ;
46 -> 54 ;
55 [label="mse = 0.0\nsamples = 3\nvalue = 0.331"] ;
54 -> 55 ;
56 [label="X[4] <= 0.723\nmse = 0.018\nsamples = 15\nvalue = 0.398"] ;
54 -> 56 ;
57 [label="mse = 0.0\nsamples = 1\nvalue = 0.666"] ;
56 -> 57 ;
58 [label="X[0] <= 0.323\nmse = 0.014\nsamples = 14\nvalue = 0.379"] ;
56 -> 58 ;
59 [label="mse = 0.0\nsamples = 5\nvalue = 0.331"] ;
58 -> 59 ;
60 [label="X[4] <= 0.93\nmse = 0.019\nsamples = 9\nvalue = 0.406"] ;
58 -> 60 ;
61 [label="mse = 0.0\nsamples = 4\nvalue = 0.331"] ;
60 -> 61 ;
62 [label="X[0] <= 0.601\nmse = 0.027\nsamples = 5\nvalue = 0.465"] ;
60 -> 62 ;
63 [label="X[4] <= 0.941\nmse = 0.028\nsamples = 4\nvalue = 0.498"] ;
62 -> 63 ;
64 [label="mse = 0.0\nsamples = 1\nvalue = 0.666"] ;
63 -> 64 ;
65 [label="X[3] <= 0.968\nmse = 0.025\nsamples = 3\nvalue = 0.443"] ;
63 -> 65 ;
66 [label="mse = 0.0\nsamples = 1\nvalue = 0.331"] ;
65 -> 66 ;
67 [label="X[3] <= 0.977\nmse = 0.028\nsamples = 2\nvalue = 0.498"] ;
65 -> 67 ;
68 [label="mse = 0.0\nsamples = 1\nvalue = 0.331"] ;
67 -> 68 ;
69 [label="mse = -0.0\nsamples = 1\nvalue = 0.666"] ;
67 -> 69 ;
70 [label="mse = 0.0\nsamples = 1\nvalue = 0.331"] ;
62 -> 70 ;
71 [label="X[6] <= 0.205\nmse = 0.021\nsamples = 16\nvalue = 0.304"] ;
19 -> 71 ;
72 [label="X[3] <= 0.628\nmse = 0.022\nsamples = 14\nvalue = 0.319"] ;
71 -> 72 ;
73 [label="mse = 0.0\nsamples = 2\nvalue = 0.248"] ;
72 -> 73 ;
74 [label="X[4] <= 0.771\nmse = 0.024\nsamples = 12\nvalue = 0.331"] ;
72 -> 74 ;
75 [label="mse = 0.0\nsamples = 2\nvalue = 0.248"] ;
74 -> 75 ;
76 [label="X[4] <= 0.889\nmse = 0.028\nsamples = 10\nvalue = 0.348"] ;
74 -> 76 ;
77 [label="X[5] <= 0.629\nmse = 0.04\nsamples = 5\nvalue = 0.398"] ;
76 -> 77 ;
78 [label="mse = 0.0\nsamples = 1\nvalue = 0.749"] ;
77 -> 78 ;
79 [label="X[5] <= 0.719\nmse = 0.012\nsamples = 4\nvalue = 0.31"] ;
77 -> 79 ;
80 [label="mse = -0.0\nsamples = 3\nvalue = 0.248"] ;
79 -> 80 ;
81 [label="mse = 0.0\nsamples = 1\nvalue = 0.498"] ;
79 -> 81 ;
82 [label="X[4] <= 0.933\nmse = 0.01\nsamples = 5\nvalue = 0.298"] ;
76 -> 82 ;
83 [label="mse = 0.0\nsamples = 1\nvalue = 0.498"] ;
82 -> 83 ;
84 [label="mse = -0.0\nsamples = 4\nvalue = 0.248"] ;
82 -> 84 ;
85 [label="mse = 0.0\nsamples = 2\nvalue = 0.198"] ;
71 -> 85 ;
86 [label="X[6] <= 0.253\nmse = 0.023\nsamples = 80\nvalue = 0.317"] ;
18 -> 86 ;
87 [label="X[0] <= 0.717\nmse = 0.024\nsamples = 73\nvalue = 0.328"] ;
86 -> 87 ;
88 [label="X[6] <= 0.209\nmse = 0.022\nsamples = 72\nvalue = 0.322"] ;
87 -> 88 ;
89 [label="X[0] <= 0.599\nmse = 0.025\nsamples = 53\nvalue = 0.341"] ;
88 -> 89 ;
90 [label="X[0] <= 0.422\nmse = 0.026\nsamples = 49\nvalue = 0.348"] ;
89 -> 90 ;
91 [label="X[0] <= 0.365\nmse = 0.037\nsamples = 25\nvalue = 0.391"] ;
90 -> 91 ;
92 [label="X[4] <= 0.591\nmse = 0.021\nsamples = 18\nvalue = 0.354"] ;
91 -> 92 ;
93 [label="mse = 0.0\nsamples = 2\nvalue = 0.248"] ;
92 -> 93 ;
94 [label="X[5] <= 0.727\nmse = 0.022\nsamples = 16\nvalue = 0.368"] ;
92 -> 94 ;
95 [label="X[5] <= 0.563\nmse = 0.001\nsamples = 4\nvalue = 0.269"] ;
94 -> 95 ;
96 [label="mse = 0.0\nsamples = 1\nvalue = 0.331"] ;
95 -> 96 ;
97 [label="mse = -0.0\nsamples = 3\nvalue = 0.248"] ;
95 -> 97 ;
98 [label="X[3] <= 0.795\nmse = 0.024\nsamples = 12\nvalue = 0.401"] ;
94 -> 98 ;
99 [label="X[3] <= 0.78\nmse = 0.012\nsamples = 4\nvalue = 0.31"] ;
98 -> 99 ;
100 [label="X[5] <= 0.776\nmse = 0.016\nsamples = 2\nvalue = 0.373"] ;
99 -> 100 ;
101 [label="mse = 0.0\nsamples = 1\nvalue = 0.248"] ;
100 -> 101 ;
102 [label="mse = 0.0\nsamples = 1\nvalue = 0.498"] ;
100 -> 102 ;
103 [label="mse = -0.0\nsamples = 2\nvalue = 0.248"] ;
99 -> 103 ;
104 [label="X[3] <= 0.925\nmse = 0.024\nsamples = 8\nvalue = 0.446"] ;
98 -> 104 ;
105 [label="X[4] <= 0.963\nmse = 0.021\nsamples = 7\nvalue = 0.475"] ;
104 -> 105 ;
106 [label="X[3] <= 0.9\nmse = 0.01\nsamples = 6\nvalue = 0.429"] ;
105 -> 106 ;
107 [label="X[4] <= 0.944\nmse = 0.011\nsamples = 3\nvalue = 0.359"] ;
106 -> 107 ;
108 [label="mse = 0.0\nsamples = 1\nvalue = 0.498"] ;
107 -> 108 ;
109 [label="X[1] <= 0.215\nmse = 0.002\nsamples = 2\nvalue = 0.289"] ;
107 -> 109 ;
110 [label="mse = 0.0\nsamples = 1\nvalue = 0.331"] ;
109 -> 110 ;
111 [label="mse = 0.0\nsamples = 1\nvalue = 0.248"] ;
109 -> 111 ;
112 [label="mse = -0.0\nsamples = 3\nvalue = 0.498"] ;
106 -> 112 ;
113 [label="mse = -0.0\nsamples = 1\nvalue = 0.749"] ;
105 -> 113 ;
114 [label="mse = 0.0\nsamples = 1\nvalue = 0.248"] ;
104 -> 114 ;
115 [label="X[0] <= 0.396\nmse = 0.067\nsamples = 7\nvalue = 0.487"] ;
91 -> 115 ;
116 [label="X[3] <= 0.422\nmse = 0.075\nsamples = 4\nvalue = 0.603"] ;
115 -> 116 ;
117 [label="X[0] <= 0.382\nmse = 0.044\nsamples = 2\nvalue = 0.457"] ;
116 -> 117 ;
118 [label="mse = 0.0\nsamples = 1\nvalue = 0.666"] ;
117 -> 118 ;
119 [label="mse = 0.0\nsamples = 1\nvalue = 0.248"] ;
117 -> 119 ;
120 [label="X[3] <= 0.798\nmse = 0.063\nsamples = 2\nvalue = 0.749"] ;
116 -> 120 ;
121 [label="mse = 0.0\nsamples = 1\nvalue = 1.0"] ;
120 -> 121 ;
122 [label="mse = 0.0\nsamples = 1\nvalue = 0.498"] ;
120 -> 122 ;
123 [label="X[1] <= 0.104\nmse = 0.014\nsamples = 3\nvalue = 0.331"] ;
115 -> 123 ;
124 [label="mse = 0.0\nsamples = 1\nvalue = 0.248"] ;
123 -> 124 ;
125 [label="X[3] <= 0.644\nmse = 0.016\nsamples = 2\nvalue = 0.373"] ;
123 -> 125 ;
126 [label="mse = 0.0\nsamples = 1\nvalue = 0.248"] ;
125 -> 126 ;
127 [label="mse = 0.0\nsamples = 1\nvalue = 0.498"] ;
125 -> 127 ;
128 [label="X[5] <= 0.879\nmse = 0.01\nsamples = 24\nvalue = 0.303"] ;
90 -> 128 ;
129 [label="X[1] <= 0.192\nmse = 0.004\nsamples = 14\nvalue = 0.272"] ;
128 -> 129 ;
130 [label="X[5] <= 0.826\nmse = 0.016\nsamples = 2\nvalue = 0.373"] ;
129 -> 130 ;
131 [label="mse = 0.0\nsamples = 1\nvalue = 0.248"] ;
130 -> 131 ;
132 [label="mse = 0.0\nsamples = 1\nvalue = 0.498"] ;
130 -> 132 ;
133 [label="X[6] <= 0.18\nmse = 0.001\nsamples = 12\nvalue = 0.255"] ;
129 -> 133 ;
134 [label="mse = 0.0\nsamples = 1\nvalue = 0.331"] ;
133 -> 134 ;
135 [label="mse = 0.0\nsamples = 11\nvalue = 0.248"] ;
133 -> 135 ;
136 [label="X[1] <= 0.201\nmse = 0.015\nsamples = 10\nvalue = 0.348"] ;
128 -> 136 ;
137 [label="mse = 0.0\nsamples = 4\nvalue = 0.248"] ;
136 -> 137 ;
138 [label="X[0] <= 0.521\nmse = 0.014\nsamples = 6\nvalue = 0.415"] ;
136 -> 138 ;
139 [label="X[0] <= 0.51\nmse = 0.016\nsamples = 4\nvalue = 0.373"] ;
138 -> 139 ;
140 [label="mse = 0.0\nsamples = 2\nvalue = 0.498"] ;
139 -> 140 ;
141 [label="mse = 0.0\nsamples = 2\nvalue = 0.248"] ;
139 -> 141 ;
142 [label="mse = 0.0\nsamples = 2\nvalue = 0.498"] ;
138 -> 142 ;
143 [label="mse = -0.0\nsamples = 4\nvalue = 0.248"] ;
89 -> 143 ;
144 [label="X[5] <= 0.919\nmse = 0.009\nsamples = 19\nvalue = 0.271"] ;
88 -> 144 ;
145 [label="X[0] <= 0.356\nmse = 0.008\nsamples = 14\nvalue = 0.255"] ;
144 -> 145 ;
146 [label="X[4] <= 0.902\nmse = 0.01\nsamples = 2\nvalue = 0.298"] ;
145 -> 146 ;
147 [label="mse = 0.0\nsamples = 1\nvalue = 0.198"] ;
146 -> 147 ;
148 [label="mse = -0.0\nsamples = 1\nvalue = 0.398"] ;
146 -> 148 ;
149 [label="X[1] <= 0.134\nmse = 0.008\nsamples = 12\nvalue = 0.248"] ;
145 -> 149 ;
150 [label="mse = 0.0\nsamples = 2\nvalue = 0.198"] ;
149 -> 150 ;
151 [label="X[1] <= 0.265\nmse = 0.008\nsamples = 10\nvalue = 0.258"] ;
149 -> 151 ;
152 [label="X[1] <= 0.192\nmse = 0.006\nsamples = 6\nvalue = 0.231"] ;
151 -> 152 ;
153 [label="mse = 0.0\nsamples = 1\nvalue = 0.398"] ;
152 -> 153 ;
154 [label="mse = 0.0\nsamples = 5\nvalue = 0.198"] ;
152 -> 154 ;
155 [label="X[3] <= 0.424\nmse = 0.01\nsamples = 4\nvalue = 0.298"] ;
151 -> 155 ;
156 [label="mse = 0.0\nsamples = 1\nvalue = 0.198"] ;
155 -> 156 ;
157 [label="X[5] <= 0.671\nmse = 0.009\nsamples = 3\nvalue = 0.331"] ;
155 -> 157 ;
158 [label="mse = 0.0\nsamples = 2\nvalue = 0.398"] ;
157 -> 158 ;
159 [label="mse = 0.0\nsamples = 1\nvalue = 0.198"] ;
157 -> 159 ;
160 [label="X[4] <= 0.945\nmse = 0.01\nsamples = 5\nvalue = 0.318"] ;
144 -> 160 ;
161 [label="X[1] <= 0.15\nmse = 0.008\nsamples = 4\nvalue = 0.348"] ;
160 -> 161 ;
162 [label="X[0] <= 0.502\nmse = 0.01\nsamples = 2\nvalue = 0.298"] ;
161 -> 162 ;
163 [label="mse = 0.0\nsamples = 1\nvalue = 0.398"] ;
162 -> 163 ;
164 [label="mse = -0.0\nsamples = 1\nvalue = 0.198"] ;
162 -> 164 ;
165 [label="mse = 0.0\nsamples = 2\nvalue = 0.398"] ;
161 -> 165 ;
166 [label="mse = -0.0\nsamples = 1\nvalue = 0.198"] ;
160 -> 166 ;
167 [label="mse = -0.0\nsamples = 1\nvalue = 0.749"] ;
87 -> 167 ;
168 [label="X[1] <= 0.202\nmse = 0.005\nsamples = 7\nvalue = 0.199"] ;
86 -> 168 ;
169 [label="mse = 0.0\nsamples = 1\nvalue = 0.331"] ;
168 -> 169 ;
170 [label="X[6] <= 0.295\nmse = 0.003\nsamples = 6\nvalue = 0.177"] ;
168 -> 170 ;
171 [label="X[6] <= 0.257\nmse = 0.002\nsamples = 5\nvalue = 0.188"] ;
170 -> 171 ;
172 [label="mse = 0.0\nsamples = 4\nvalue = 0.164"] ;
171 -> 172 ;
173 [label="mse = 0.0\nsamples = 1\nvalue = 0.284"] ;
171 -> 173 ;
174 [label="mse = 0.0\nsamples = 1\nvalue = 0.122"] ;
170 -> 174 ;
175 [label="X[3] <= 0.858\nmse = 0.02\nsamples = 132\nvalue = 0.228"] ;
17 -> 175 ;
176 [label="X[3] <= 0.696\nmse = 0.014\nsamples = 98\nvalue = 0.207"] ;
175 -> 176 ;
177 [label="X[6] <= 0.239\nmse = 0.005\nsamples = 60\nvalue = 0.187"] ;
176 -> 177 ;
178 [label="X[0] <= 0.308\nmse = 0.004\nsamples = 17\nvalue = 0.23"] ;
177 -> 178 ;
179 [label="mse = 0.0\nsamples = 4\nvalue = 0.198"] ;
178 -> 179 ;
180 [label="X[4] <= 0.91\nmse = 0.005\nsamples = 13\nvalue = 0.24"] ;
178 -> 180 ;
181 [label="X[4] <= 0.799\nmse = 0.003\nsamples = 11\nvalue = 0.229"] ;
180 -> 181 ;
182 [label="mse = 0.0\nsamples = 3\nvalue = 0.198"] ;
181 -> 182 ;
183 [label="X[4] <= 0.874\nmse = 0.004\nsamples = 8\nvalue = 0.241"] ;
181 -> 183 ;
184 [label="X[4] <= 0.846\nmse = 0.005\nsamples = 5\nvalue = 0.268"] ;
183 -> 184 ;
185 [label="mse = 0.0\nsamples = 1\nvalue = 0.398"] ;
184 -> 185 ;
186 [label="X[6] <= 0.2\nmse = 0.0\nsamples = 4\nvalue = 0.235"] ;
184 -> 186 ;
187 [label="mse = -0.0\nsamples = 3\nvalue = 0.248"] ;
186 -> 187 ;
188 [label="mse = 0.0\nsamples = 1\nvalue = 0.198"] ;
186 -> 188 ;
189 [label="mse = -0.0\nsamples = 3\nvalue = 0.198"] ;
183 -> 189 ;
190 [label="X[3] <= 0.228\nmse = 0.01\nsamples = 2\nvalue = 0.298"] ;
180 -> 190 ;
191 [label="mse = 0.0\nsamples = 1\nvalue = 0.198"] ;
190 -> 191 ;
192 [label="mse = -0.0\nsamples = 1\nvalue = 0.398"] ;
190 -> 192 ;
193 [label="X[6] <= 0.308\nmse = 0.004\nsamples = 43\nvalue = 0.171"] ;
177 -> 193 ;
194 [label="X[6] <= 0.269\nmse = 0.004\nsamples = 36\nvalue = 0.178"] ;
193 -> 194 ;
195 [label="X[1] <= 0.3\nmse = 0.004\nsamples = 19\nvalue = 0.19"] ;
194 -> 195 ;
196 [label="mse = 0.0\nsamples = 8\nvalue = 0.164"] ;
195 -> 196 ;
197 [label="X[1] <= 0.315\nmse = 0.006\nsamples = 11\nvalue = 0.21"] ;
195 -> 197 ;
198 [label="X[4] <= 0.888\nmse = 0.003\nsamples = 8\nvalue = 0.185"] ;
197 -> 198 ;
199 [label="mse = -0.0\nsamples = 5\nvalue = 0.164"] ;
198 -> 199 ;
200 [label="X[4] <= 0.923\nmse = 0.006\nsamples = 3\nvalue = 0.22"] ;
198 -> 200 ;
201 [label="mse = 0.0\nsamples = 1\nvalue = 0.331"] ;
200 -> 201 ;
202 [label="mse = 0.0\nsamples = 2\nvalue = 0.164"] ;
200 -> 202 ;
203 [label="X[0] <= 0.396\nmse = 0.006\nsamples = 3\nvalue = 0.276"] ;
197 -> 203 ;
204 [label="mse = 0.0\nsamples = 1\nvalue = 0.164"] ;
203 -> 204 ;
205 [label="mse = -0.0\nsamples = 2\nvalue = 0.331"] ;
203 -> 205 ;
206 [label="X[6] <= 0.296\nmse = 0.004\nsamples = 17\nvalue = 0.163"] ;
194 -> 206 ;
207 [label="X[4] <= 0.884\nmse = 0.005\nsamples = 7\nvalue = 0.222"] ;
206 -> 207 ;
208 [label="X[0] <= 0.273\nmse = 0.005\nsamples = 6\nvalue = 0.236"] ;
207 -> 208 ;
209 [label="mse = 0.0\nsamples = 1\nvalue = 0.14"] ;
208 -> 209 ;
210 [label="X[2] <= 0.253\nmse = 0.003\nsamples = 5\nvalue = 0.255"] ;
208 -> 210 ;
211 [label="X[5] <= 0.415\nmse = 0.005\nsamples = 3\nvalue = 0.236"] ;
210 -> 211 ;
212 [label="mse = 0.0\nsamples = 2\nvalue = 0.284"] ;
211 -> 212 ;
213 [label="mse = -0.0\nsamples = 1\nvalue = 0.14"] ;
211 -> 213 ;
214 [label="mse = -0.0\nsamples = 2\nvalue = 0.284"] ;
210 -> 214 ;
215 [label="mse = 0.0\nsamples = 1\nvalue = 0.14"] ;
207 -> 215 ;
216 [label="mse = -0.0\nsamples = 10\nvalue = 0.122"] ;
206 -> 216 ;
217 [label="X[6] <= 0.32\nmse = 0.002\nsamples = 7\nvalue = 0.134"] ;
193 -> 217 ;
218 [label="mse = 0.0\nsamples = 5\nvalue = 0.108"] ;
217 -> 218 ;
219 [label="mse = 0.0\nsamples = 2\nvalue = 0.198"] ;
217 -> 219 ;
220 [label="X[6] <= 0.526\nmse = 0.026\nsamples = 38\nvalue = 0.238"] ;
176 -> 220 ;
221 [label="X[0] <= 0.326\nmse = 0.026\nsamples = 37\nvalue = 0.244"] ;
220 -> 221 ;
222 [label="X[1] <= 0.242\nmse = 0.049\nsamples = 6\nvalue = 0.308"] ;
221 -> 222 ;
223 [label="X[0] <= 0.211\nmse = 0.075\nsamples = 2\nvalue = 0.439"] ;
222 -> 223 ;
224 [label="mse = 0.0\nsamples = 1\nvalue = 0.713"] ;
223 -> 224 ;
225 [label="mse = 0.0\nsamples = 1\nvalue = 0.164"] ;
223 -> 225 ;
226 [label="X[2] <= 0.262\nmse = 0.023\nsamples = 4\nvalue = 0.242"] ;
222 -> 226 ;
227 [label="X[4] <= 0.876\nmse = 0.001\nsamples = 3\nvalue = 0.157"] ;
226 -> 227 ;
228 [label="mse = 0.0\nsamples = 1\nvalue = 0.108"] ;
227 -> 228 ;
229 [label="X[0] <= 0.252\nmse = 0.0\nsamples = 2\nvalue = 0.181"] ;
227 -> 229 ;
230 [label="mse = 0.0\nsamples = 1\nvalue = 0.164"] ;
229 -> 230 ;
231 [label="mse = 0.0\nsamples = 1\nvalue = 0.198"] ;
229 -> 231 ;
232 [label="mse = -0.0\nsamples = 1\nvalue = 0.498"] ;
226 -> 232 ;
233 [label="X[5] <= 0.79\nmse = 0.02\nsamples = 31\nvalue = 0.231"] ;
221 -> 233 ;
234 [label="X[0] <= 0.45\nmse = 0.024\nsamples = 25\nvalue = 0.247"] ;
233 -> 234 ;
235 [label="X[2] <= 0.263\nmse = 0.008\nsamples = 14\nvalue = 0.209"] ;
234 -> 235 ;
236 [label="X[3] <= 0.777\nmse = 0.008\nsamples = 8\nvalue = 0.258"] ;
235 -> 236 ;
237 [label="X[1] <= 0.153\nmse = 0.006\nsamples = 7\nvalue = 0.237"] ;
236 -> 237 ;
238 [label="mse = 0.0\nsamples = 1\nvalue = 0.427"] ;
237 -> 238 ;
239 [label="X[6] <= 0.228\nmse = 0.0\nsamples = 6\nvalue = 0.206"] ;
237 -> 239 ;
240 [label="mse = 0.0\nsamples = 1\nvalue = 0.248"] ;
239 -> 240 ;
241 [label="mse = -0.0\nsamples = 5\nvalue = 0.198"] ;
239 -> 241 ;
242 [label="mse = 0.0\nsamples = 1\nvalue = 0.398"] ;
236 -> 242 ;
243 [label="X[1] <= 0.157\nmse = 0.001\nsamples = 6\nvalue = 0.143"] ;
235 -> 243 ;
244 [label="mse = 0.0\nsamples = 1\nvalue = 0.088"] ;
243 -> 244 ;
245 [label="X[6] <= 0.273\nmse = 0.0\nsamples = 5\nvalue = 0.155"] ;
243 -> 245 ;
246 [label="mse = 0.0\nsamples = 3\nvalue = 0.164"] ;
245 -> 246 ;
247 [label="mse = -0.0\nsamples = 2\nvalue = 0.14"] ;
245 -> 247 ;
248 [label="X[0] <= 0.577\nmse = 0.039\nsamples = 11\nvalue = 0.295"] ;
234 -> 248 ;
249 [label="X[0] <= 0.523\nmse = 0.042\nsamples = 9\nvalue = 0.329"] ;
248 -> 249 ;
250 [label="X[5] <= 0.645\nmse = 0.013\nsamples = 7\nvalue = 0.264"] ;
249 -> 250 ;
251 [label="mse = 0.0\nsamples = 1\nvalue = 0.498"] ;
250 -> 251 ;
252 [label="X[0] <= 0.476\nmse = 0.004\nsamples = 6\nvalue = 0.225"] ;
250 -> 252 ;
253 [label="X[4] <= 0.818\nmse = 0.003\nsamples = 3\nvalue = 0.207"] ;
252 -> 253 ;
254 [label="X[1] <= 0.198\nmse = 0.002\nsamples = 2\nvalue = 0.241"] ;
253 -> 254 ;
255 [label="mse = 0.0\nsamples = 1\nvalue = 0.198"] ;
254 -> 255 ;
256 [label="mse = -0.0\nsamples = 1\nvalue = 0.284"] ;
254 -> 256 ;
257 [label="mse = -0.0\nsamples = 1\nvalue = 0.14"] ;
253 -> 257 ;
258 [label="X[6] <= 0.201\nmse = 0.004\nsamples = 3\nvalue = 0.242"] ;
252 -> 258 ;
259 [label="mse = 0.0\nsamples = 1\nvalue = 0.331"] ;
258 -> 259 ;
260 [label="mse = 0.0\nsamples = 2\nvalue = 0.198"] ;
258 -> 260 ;
261 [label="X[3] <= 0.734\nmse = 0.075\nsamples = 2\nvalue = 0.558"] ;
249 -> 261 ;
262 [label="mse = 0.0\nsamples = 1\nvalue = 0.833"] ;
261 -> 262 ;
263 [label="mse = 0.0\nsamples = 1\nvalue = 0.284"] ;
261 -> 263 ;
264 [label="X[6] <= 0.293\nmse = 0.0\nsamples = 2\nvalue = 0.143"] ;
248 -> 264 ;
265 [label="mse = 0.0\nsamples = 1\nvalue = 0.164"] ;
264 -> 265 ;
266 [label="mse = 0.0\nsamples = 1\nvalue = 0.122"] ;
264 -> 266 ;
267 [label="X[6] <= 0.241\nmse = 0.001\nsamples = 6\nvalue = 0.166"] ;
233 -> 267 ;
268 [label="mse = 0.0\nsamples = 3\nvalue = 0.198"] ;
267 -> 268 ;
269 [label="X[0] <= 0.368\nmse = 0.0\nsamples = 3\nvalue = 0.134"] ;
267 -> 269 ;
270 [label="mse = 0.0\nsamples = 1\nvalue = 0.122"] ;
269 -> 270 ;
271 [label="mse = -0.0\nsamples = 2\nvalue = 0.14"] ;
269 -> 271 ;
272 [label="mse = -0.0\nsamples = 1\nvalue = 0.017"] ;
220 -> 272 ;
273 [label="X[2] <= 0.257\nmse = 0.032\nsamples = 34\nvalue = 0.287"] ;
175 -> 273 ;
274 [label="X[1] <= 0.235\nmse = 0.039\nsamples = 22\nvalue = 0.309"] ;
273 -> 274 ;
275 [label="X[1] <= 0.114\nmse = 0.014\nsamples = 12\nvalue = 0.252"] ;
274 -> 275 ;
276 [label="X[5] <= 0.882\nmse = 0.003\nsamples = 2\nvalue = 0.448"] ;
275 -> 276 ;
277 [label="mse = 0.0\nsamples = 1\nvalue = 0.398"] ;
276 -> 277 ;
278 [label="mse = -0.0\nsamples = 1\nvalue = 0.498"] ;
276 -> 278 ;
279 [label="X[5] <= 0.897\nmse = 0.007\nsamples = 10\nvalue = 0.213"] ;
275 -> 279 ;
280 [label="X[6] <= 0.24\nmse = 0.001\nsamples = 4\nvalue = 0.179"] ;
279 -> 280 ;
281 [label="mse = 0.0\nsamples = 3\nvalue = 0.198"] ;
280 -> 281 ;
282 [label="mse = 0.0\nsamples = 1\nvalue = 0.122"] ;
280 -> 282 ;
283 [label="X[4] <= 0.932\nmse = 0.009\nsamples = 6\nvalue = 0.235"] ;
279 -> 283 ;
284 [label="X[3] <= 0.92\nmse = 0.001\nsamples = 2\nvalue = 0.16"] ;
283 -> 284 ;
285 [label="mse = 0.0\nsamples = 1\nvalue = 0.122"] ;
284 -> 285 ;
286 [label="mse = 0.0\nsamples = 1\nvalue = 0.198"] ;
284 -> 286 ;
287 [label="X[1] <= 0.145\nmse = 0.009\nsamples = 4\nvalue = 0.273"] ;
283 -> 287 ;
288 [label="X[5] <= 0.93\nmse = 0.011\nsamples = 3\nvalue = 0.253"] ;
287 -> 288 ;
289 [label="mse = 0.0\nsamples = 1\nvalue = 0.398"] ;
288 -> 289 ;
290 [label="X[4] <= 0.942\nmse = 0.0\nsamples = 2\nvalue = 0.181"] ;
288 -> 290 ;
291 [label="mse = 0.0\nsamples = 1\nvalue = 0.198"] ;
290 -> 291 ;
292 [label="mse = 0.0\nsamples = 1\nvalue = 0.164"] ;
290 -> 292 ;
293 [label="mse = 0.0\nsamples = 1\nvalue = 0.331"] ;
287 -> 293 ;
294 [label="X[3] <= 0.862\nmse = 0.061\nsamples = 10\nvalue = 0.378"] ;
274 -> 294 ;
295 [label="mse = 0.0\nsamples = 1\nvalue = 1.0"] ;
294 -> 295 ;
296 [label="X[3] <= 0.919\nmse = 0.02\nsamples = 9\nvalue = 0.308"] ;
294 -> 296 ;
297 [label="X[5] <= 0.851\nmse = 0.001\nsamples = 4\nvalue = 0.175"] ;
296 -> 297 ;
298 [label="mse = 0.0\nsamples = 2\nvalue = 0.198"] ;
297 -> 298 ;
299 [label="X[3] <= 0.91\nmse = 0.0\nsamples = 2\nvalue = 0.152"] ;
297 -> 299 ;
300 [label="mse = 0.0\nsamples = 1\nvalue = 0.14"] ;
299 -> 300 ;
301 [label="mse = -0.0\nsamples = 1\nvalue = 0.164"] ;
299 -> 301 ;
302 [label="X[1] <= 0.305\nmse = 0.01\nsamples = 5\nvalue = 0.415"] ;
296 -> 302 ;
303 [label="X[6] <= 0.259\nmse = 0.002\nsamples = 4\nvalue = 0.369"] ;
302 -> 303 ;
304 [label="mse = 0.0\nsamples = 3\nvalue = 0.398"] ;
303 -> 304 ;
305 [label="mse = -0.0\nsamples = 1\nvalue = 0.284"] ;
303 -> 305 ;
306 [label="mse = 0.0\nsamples = 1\nvalue = 0.599"] ;
302 -> 306 ;
307 [label="X[1] <= 0.021\nmse = 0.016\nsamples = 12\nvalue = 0.247"] ;
273 -> 307 ;
308 [label="mse = 0.0\nsamples = 1\nvalue = 0.498"] ;
307 -> 308 ;
309 [label="X[5] <= 0.959\nmse = 0.011\nsamples = 11\nvalue = 0.224"] ;
307 -> 309 ;
310 [label="X[1] <= 0.195\nmse = 0.009\nsamples = 10\nvalue = 0.209"] ;
309 -> 310 ;
311 [label="X[3] <= 0.955\nmse = 0.0\nsamples = 3\nvalue = 0.148"] ;
310 -> 311 ;
312 [label="mse = 0.0\nsamples = 2\nvalue = 0.14"] ;
311 -> 312 ;
313 [label="mse = -0.0\nsamples = 1\nvalue = 0.164"] ;
311 -> 313 ;
314 [label="X[4] <= 0.848\nmse = 0.011\nsamples = 7\nvalue = 0.236"] ;
310 -> 314 ;
315 [label="mse = 0.0\nsamples = 1\nvalue = 0.331"] ;
314 -> 315 ;
316 [label="X[4] <= 0.926\nmse = 0.011\nsamples = 6\nvalue = 0.22"] ;
314 -> 316 ;
317 [label="mse = 0.0\nsamples = 1\nvalue = 0.427"] ;
316 -> 317 ;
318 [label="X[0] <= 0.627\nmse = 0.003\nsamples = 5\nvalue = 0.178"] ;
316 -> 318 ;
319 [label="X[6] <= 0.257\nmse = 0.0\nsamples = 3\nvalue = 0.148"] ;
318 -> 319 ;
320 [label="mse = 0.0\nsamples = 1\nvalue = 0.164"] ;
319 -> 320 ;
321 [label="mse = -0.0\nsamples = 2\nvalue = 0.14"] ;
319 -> 321 ;
322 [label="X[6] <= 0.258\nmse = 0.004\nsamples = 2\nvalue = 0.224"] ;
318 -> 322 ;
323 [label="mse = 0.0\nsamples = 1\nvalue = 0.164"] ;
322 -> 323 ;
324 [label="mse = 0.0\nsamples = 1\nvalue = 0.284"] ;
322 -> 324 ;
325 [label="mse = 0.0\nsamples = 1\nvalue = 0.373"] ;
309 -> 325 ;
326 [label="X[6] <= 0.362\nmse = 0.008\nsamples = 2136\nvalue = 0.1"] ;
0 -> 326 [labeldistance=2.5, labelangle=-45, headlabel="False"] ;
327 [label="X[6] <= 0.241\nmse = 0.012\nsamples = 372\nvalue = 0.168"] ;
326 -> 327 ;
328 [label="X[6] <= 0.023\nmse = 0.028\nsamples = 23\nvalue = 0.293"] ;
327 -> 328 ;
329 [label="mse = 0.0\nsamples = 1\nvalue = 1.0"] ;
328 -> 329 ;
330 [label="X[6] <= 0.219\nmse = 0.005\nsamples = 22\nvalue = 0.261"] ;
328 -> 330 ;
331 [label="X[6] <= 0.165\nmse = 0.005\nsamples = 14\nvalue = 0.284"] ;
330 -> 331 ;
332 [label="mse = 0.0\nsamples = 3\nvalue = 0.331"] ;
331 -> 332 ;
333 [label="X[2] <= 0.595\nmse = 0.005\nsamples = 11\nvalue = 0.27"] ;
331 -> 333 ;
334 [label="mse = 0.0\nsamples = 10\nvalue = 0.248"] ;
333 -> 334 ;
335 [label="mse = -0.0\nsamples = 1\nvalue = 0.498"] ;
333 -> 335 ;
336 [label="X[5] <= 0.35\nmse = 0.004\nsamples = 8\nvalue = 0.223"] ;
330 -> 336 ;
337 [label="X[2] <= 0.424\nmse = 0.009\nsamples = 3\nvalue = 0.264"] ;
336 -> 337 ;
338 [label="mse = 0.0\nsamples = 1\nvalue = 0.398"] ;
337 -> 338 ;
339 [label="mse = -0.0\nsamples = 2\nvalue = 0.198"] ;
337 -> 339 ;
340 [label="mse = -0.0\nsamples = 5\nvalue = 0.198"] ;
336 -> 340 ;
341 [label="X[5] <= 0.226\nmse = 0.01\nsamples = 349\nvalue = 0.16"] ;
327 -> 341 ;
342 [label="X[6] <= 0.294\nmse = 0.002\nsamples = 92\nvalue = 0.119"] ;
341 -> 342 ;
343 [label="X[6] <= 0.277\nmse = 0.003\nsamples = 12\nvalue = 0.16"] ;
342 -> 343 ;
344 [label="X[4] <= 0.777\nmse = 0.006\nsamples = 3\nvalue = 0.22"] ;
343 -> 344 ;
345 [label="mse = 0.0\nsamples = 1\nvalue = 0.331"] ;
344 -> 345 ;
346 [label="mse = 0.0\nsamples = 2\nvalue = 0.164"] ;
344 -> 346 ;
347 [label="mse = 0.0\nsamples = 9\nvalue = 0.14"] ;
343 -> 347 ;
348 [label="X[6] <= 0.35\nmse = 0.002\nsamples = 80\nvalue = 0.113"] ;
342 -> 348 ;
349 [label="X[6] <= 0.342\nmse = 0.002\nsamples = 64\nvalue = 0.12"] ;
348 -> 349 ;
350 [label="X[6] <= 0.307\nmse = 0.002\nsamples = 47\nvalue = 0.128"] ;
349 -> 350 ;
351 [label="X[1] <= 0.39\nmse = 0.003\nsamples = 12\nvalue = 0.164"] ;
350 -> 351 ;
352 [label="X[0] <= 0.425\nmse = 0.004\nsamples = 8\nvalue = 0.185"] ;
351 -> 352 ;
353 [label="mse = -0.0\nsamples = 3\nvalue = 0.122"] ;
352 -> 353 ;
354 [label="X[3] <= 0.194\nmse = 0.003\nsamples = 5\nvalue = 0.223"] ;
352 -> 354 ;
355 [label="mse = 0.0\nsamples = 1\nvalue = 0.122"] ;
354 -> 355 ;
356 [label="mse = -0.0\nsamples = 4\nvalue = 0.248"] ;
354 -> 356 ;
357 [label="mse = -0.0\nsamples = 4\nvalue = 0.122"] ;
351 -> 357 ;
358 [label="X[3] <= 0.255\nmse = 0.001\nsamples = 35\nvalue = 0.116"] ;
350 -> 358 ;
359 [label="X[4] <= 0.941\nmse = 0.001\nsamples = 30\nvalue = 0.118"] ;
358 -> 359 ;
360 [label="X[2] <= 0.369\nmse = 0.001\nsamples = 28\nvalue = 0.116"] ;
359 -> 360 ;
361 [label="X[5] <= 0.112\nmse = 0.002\nsamples = 18\nvalue = 0.126"] ;
360 -> 361 ;
362 [label="X[3] <= 0.205\nmse = 0.002\nsamples = 15\nvalue = 0.131"] ;
361 -> 362 ;
363 [label="X[4] <= 0.835\nmse = 0.002\nsamples = 3\nvalue = 0.175"] ;
362 -> 363 ;
364 [label="mse = 0.0\nsamples = 1\nvalue = 0.108"] ;
363 -> 364 ;
365 [label="X[3] <= 0.204\nmse = 0.0\nsamples = 2\nvalue = 0.209"] ;
363 -> 365 ;
366 [label="mse = 0.0\nsamples = 1\nvalue = 0.22"] ;
365 -> 366 ;
367 [label="mse = 0.0\nsamples = 1\nvalue = 0.198"] ;
365 -> 367 ;
368 [label="X[1] <= 0.322\nmse = 0.001\nsamples = 12\nvalue = 0.12"] ;
362 -> 368 ;
369 [label="mse = 0.0\nsamples = 1\nvalue = 0.198"] ;
368 -> 369 ;
370 [label="X[0] <= 0.535\nmse = 0.001\nsamples = 11\nvalue = 0.112"] ;
368 -> 370 ;
371 [label="X[6] <= 0.319\nmse = 0.0\nsamples = 7\nvalue = 0.104"] ;
370 -> 371 ;
372 [label="mse = 0.0\nsamples = 4\nvalue = 0.108"] ;
371 -> 372 ;
373 [label="mse = -0.0\nsamples = 3\nvalue = 0.097"] ;
371 -> 373 ;
374 [label="X[2] <= 0.344\nmse = 0.002\nsamples = 4\nvalue = 0.128"] ;
370 -> 374 ;
375 [label="mse = 0.0\nsamples = 2\nvalue = 0.108"] ;
374 -> 375 ;
376 [label="X[0] <= 0.542\nmse = 0.003\nsamples = 2\nvalue = 0.147"] ;
374 -> 376 ;
377 [label="mse = 0.0\nsamples = 1\nvalue = 0.198"] ;
376 -> 377 ;
378 [label="mse = 0.0\nsamples = 1\nvalue = 0.097"] ;
376 -> 378 ;
379 [label="X[6] <= 0.321\nmse = 0.0\nsamples = 3\nvalue = 0.105"] ;
361 -> 379 ;
380 [label="mse = 0.0\nsamples = 2\nvalue = 0.108"] ;
379 -> 380 ;
381 [label="mse = -0.0\nsamples = 1\nvalue = 0.097"] ;
379 -> 381 ;
382 [label="X[6] <= 0.323\nmse = 0.0\nsamples = 10\nvalue = 0.098"] ;
360 -> 382 ;
383 [label="mse = 0.0\nsamples = 1\nvalue = 0.108"] ;
382 -> 383 ;
384 [label="mse = 0.0\nsamples = 9\nvalue = 0.097"] ;
382 -> 384 ;
385 [label="X[0] <= 0.457\nmse = 0.003\nsamples = 2\nvalue = 0.147"] ;
359 -> 385 ;
386 [label="mse = 0.0\nsamples = 1\nvalue = 0.198"] ;
385 -> 386 ;
387 [label="mse = 0.0\nsamples = 1\nvalue = 0.097"] ;
385 -> 387 ;
388 [label="X[6] <= 0.318\nmse = 0.0\nsamples = 5\nvalue = 0.099"] ;
358 -> 388 ;
389 [label="mse = 0.0\nsamples = 1\nvalue = 0.108"] ;
388 -> 389 ;
390 [label="mse = -0.0\nsamples = 4\nvalue = 0.097"] ;
388 -> 390 ;
391 [label="X[2] <= 0.421\nmse = 0.001\nsamples = 17\nvalue = 0.099"] ;
349 -> 391 ;
392 [label="X[3] <= 0.172\nmse = 0.001\nsamples = 14\nvalue = 0.101"] ;
391 -> 392 ;
393 [label="mse = 0.0\nsamples = 1\nvalue = 0.179"] ;
392 -> 393 ;
394 [label="X[1] <= 0.414\nmse = 0.001\nsamples = 13\nvalue = 0.095"] ;
392 -> 394 ;
395 [label="mse = -0.0\nsamples = 7\nvalue = 0.088"] ;
394 -> 395 ;
396 [label="X[2] <= 0.373\nmse = 0.001\nsamples = 6\nvalue = 0.103"] ;
394 -> 396 ;
397 [label="X[3] <= 0.199\nmse = 0.002\nsamples = 3\nvalue = 0.118"] ;
396 -> 397 ;
398 [label="X[0] <= 0.622\nmse = 0.002\nsamples = 2\nvalue = 0.134"] ;
397 -> 398 ;
399 [label="mse = 0.0\nsamples = 1\nvalue = 0.179"] ;
398 -> 399 ;
400 [label="mse = 0.0\nsamples = 1\nvalue = 0.088"] ;
398 -> 400 ;
401 [label="mse = 0.0\nsamples = 1\nvalue = 0.088"] ;
397 -> 401 ;
402 [label="mse = -0.0\nsamples = 3\nvalue = 0.088"] ;
396 -> 402 ;
403 [label="mse = 0.0\nsamples = 3\nvalue = 0.088"] ;
391 -> 403 ;
404 [label="X[2] <= 0.362\nmse = 0.0\nsamples = 16\nvalue = 0.086"] ;
348 -> 404 ;
405 [label="X[5] <= 0.16\nmse = 0.001\nsamples = 5\nvalue = 0.097"] ;
404 -> 405 ;
406 [label="X[5] <= 0.056\nmse = 0.002\nsamples = 3\nvalue = 0.108"] ;
405 -> 406 ;
407 [label="mse = 0.0\nsamples = 2\nvalue = 0.08"] ;
406 -> 407 ;
408 [label="mse = 0.0\nsamples = 1\nvalue = 0.164"] ;
406 -> 408 ;
409 [label="mse = 0.0\nsamples = 2\nvalue = 0.08"] ;
405 -> 409 ;
410 [label="mse = -0.0\nsamples = 11\nvalue = 0.08"] ;
404 -> 410 ;
411 [label="X[0] <= 0.556\nmse = 0.012\nsamples = 257\nvalue = 0.175"] ;
341 -> 411 ;
412 [label="X[3] <= 0.528\nmse = 0.015\nsamples = 175\nvalue = 0.183"] ;
411 -> 412 ;
413 [label="X[4] <= 0.777\nmse = 0.005\nsamples = 52\nvalue = 0.141"] ;
412 -> 413 ;
414 [label="X[1] <= 0.394\nmse = 0.015\nsamples = 5\nvalue = 0.209"] ;
413 -> 414 ;
415 [label="X[5] <= 0.336\nmse = 0.006\nsamples = 4\nvalue = 0.157"] ;
414 -> 415 ;
416 [label="mse = 0.0\nsamples = 1\nvalue = 0.284"] ;
415 -> 416 ;
417 [label="X[1] <= 0.306\nmse = 0.0\nsamples = 3\nvalue = 0.115"] ;
415 -> 417 ;
418 [label="X[3] <= 0.379\nmse = 0.0\nsamples = 2\nvalue = 0.103"] ;
417 -> 418 ;
419 [label="mse = 0.0\nsamples = 1\nvalue = 0.097"] ;
418 -> 419 ;
420 [label="mse = -0.0\nsamples = 1\nvalue = 0.108"] ;
418 -> 420 ;
421 [label="mse = 0.0\nsamples = 1\nvalue = 0.14"] ;
417 -> 421 ;
422 [label="mse = -0.0\nsamples = 1\nvalue = 0.415"] ;
414 -> 422 ;
423 [label="X[3] <= 0.436\nmse = 0.003\nsamples = 47\nvalue = 0.134"] ;
413 -> 423 ;
424 [label="X[6] <= 0.333\nmse = 0.002\nsamples = 33\nvalue = 0.12"] ;
423 -> 424 ;
425 [label="X[1] <= 0.33\nmse = 0.002\nsamples = 22\nvalue = 0.135"] ;
424 -> 425 ;
426 [label="X[4] <= 0.891\nmse = 0.002\nsamples = 4\nvalue = 0.188"] ;
425 -> 426 ;
427 [label="X[5] <= 0.569\nmse = 0.001\nsamples = 3\nvalue = 0.211"] ;
426 -> 427 ;
428 [label="X[5] <= 0.401\nmse = 0.001\nsamples = 2\nvalue = 0.192"] ;
427 -> 428 ;
429 [label="mse = 0.0\nsamples = 1\nvalue = 0.22"] ;
428 -> 429 ;
430 [label="mse = -0.0\nsamples = 1\nvalue = 0.164"] ;
428 -> 430 ;
431 [label="mse = -0.0\nsamples = 1\nvalue = 0.248"] ;
427 -> 431 ;
432 [label="mse = -0.0\nsamples = 1\nvalue = 0.122"] ;
426 -> 432 ;
433 [label="X[6] <= 0.327\nmse = 0.001\nsamples = 18\nvalue = 0.123"] ;
425 -> 433 ;
434 [label="X[0] <= 0.341\nmse = 0.001\nsamples = 15\nvalue = 0.128"] ;
433 -> 434 ;
435 [label="X[3] <= 0.295\nmse = 0.003\nsamples = 3\nvalue = 0.17"] ;
434 -> 435 ;
436 [label="X[1] <= 0.356\nmse = 0.0\nsamples = 2\nvalue = 0.131"] ;
435 -> 436 ;
437 [label="mse = 0.0\nsamples = 1\nvalue = 0.122"] ;
436 -> 437 ;
438 [label="mse = 0.0\nsamples = 1\nvalue = 0.14"] ;
436 -> 438 ;
439 [label="mse = -0.0\nsamples = 1\nvalue = 0.248"] ;
435 -> 439 ;
440 [label="X[6] <= 0.28\nmse = 0.0\nsamples = 12\nvalue = 0.117"] ;
434 -> 440 ;
441 [label="mse = 0.0\nsamples = 3\nvalue = 0.14"] ;
440 -> 441 ;
442 [label="X[6] <= 0.313\nmse = 0.0\nsamples = 9\nvalue = 0.11"] ;
440 -> 442 ;
443 [label="mse = 0.0\nsamples = 1\nvalue = 0.122"] ;
442 -> 443 ;
444 [label="mse = 0.0\nsamples = 8\nvalue = 0.108"] ;
442 -> 444 ;
445 [label="mse = 0.0\nsamples = 3\nvalue = 0.097"] ;
433 -> 445 ;
446 [label="X[0] <= 0.381\nmse = 0.001\nsamples = 11\nvalue = 0.092"] ;
424 -> 446 ;
447 [label="X[6] <= 0.351\nmse = 0.0\nsamples = 5\nvalue = 0.084"] ;
446 -> 447 ;
448 [label="mse = 0.0\nsamples = 2\nvalue = 0.088"] ;
447 -> 448 ;
449 [label="mse = -0.0\nsamples = 3\nvalue = 0.08"] ;
447 -> 449 ;
450 [label="X[0] <= 0.438\nmse = 0.001\nsamples = 6\nvalue = 0.098"] ;
446 -> 450 ;
451 [label="X[6] <= 0.352\nmse = 0.001\nsamples = 3\nvalue = 0.113"] ;
450 -> 451 ;
452 [label="mse = -0.0\nsamples = 2\nvalue = 0.088"] ;
451 -> 452 ;
453 [label="mse = -0.0\nsamples = 1\nvalue = 0.164"] ;
451 -> 453 ;
454 [label="X[3] <= 0.31\nmse = 0.0\nsamples = 3\nvalue = 0.083"] ;
450 -> 454 ;
455 [label="mse = 0.0\nsamples = 2\nvalue = 0.08"] ;
454 -> 455 ;
456 [label="mse = -0.0\nsamples = 1\nvalue = 0.088"] ;
454 -> 456 ;
457 [label="X[5] <= 0.598\nmse = 0.004\nsamples = 14\nvalue = 0.166"] ;
423 -> 457 ;
458 [label="X[6] <= 0.35\nmse = 0.003\nsamples = 13\nvalue = 0.171"] ;
457 -> 458 ;
459 [label="X[6] <= 0.291\nmse = 0.002\nsamples = 11\nvalue = 0.187"] ;
458 -> 459 ;
460 [label="mse = 0.0\nsamples = 3\nvalue = 0.14"] ;
459 -> 460 ;
461 [label="X[0] <= 0.343\nmse = 0.002\nsamples = 8\nvalue = 0.205"] ;
459 -> 461 ;
462 [label="mse = 0.0\nsamples = 1\nvalue = 0.108"] ;
461 -> 462 ;
463 [label="X[5] <= 0.408\nmse = 0.001\nsamples = 7\nvalue = 0.219"] ;
461 -> 463 ;
464 [label="X[6] <= 0.328\nmse = 0.0\nsamples = 4\nvalue = 0.239"] ;
463 -> 464 ;
465 [label="X[0] <= 0.448\nmse = 0.0\nsamples = 3\nvalue = 0.229"] ;
464 -> 465 ;
466 [label="mse = 0.0\nsamples = 1\nvalue = 0.248"] ;
465 -> 466 ;
467 [label="mse = 0.0\nsamples = 2\nvalue = 0.22"] ;
465 -> 467 ;
468 [label="mse = 0.0\nsamples = 1\nvalue = 0.27"] ;
464 -> 468 ;
469 [label="X[0] <= 0.432\nmse = 0.0\nsamples = 3\nvalue = 0.191"] ;
463 -> 469 ;
470 [label="mse = -0.0\nsamples = 2\nvalue = 0.198"] ;
469 -> 470 ;
471 [label="mse = 0.0\nsamples = 1\nvalue = 0.179"] ;
469 -> 471 ;
472 [label="mse = 0.0\nsamples = 2\nvalue = 0.08"] ;
458 -> 472 ;
473 [label="mse = 0.0\nsamples = 1\nvalue = 0.097"] ;
457 -> 473 ;
474 [label="X[2] <= 0.387\nmse = 0.019\nsamples = 123\nvalue = 0.201"] ;
412 -> 474 ;
475 [label="X[5] <= 0.923\nmse = 0.019\nsamples = 116\nvalue = 0.205"] ;
474 -> 475 ;
476 [label="X[5] <= 0.449\nmse = 0.018\nsamples = 107\nvalue = 0.199"] ;
475 -> 476 ;
477 [label="X[0] <= 0.516\nmse = 0.0\nsamples = 2\nvalue = 0.42"] ;
476 -> 477 ;
478 [label="mse = 0.0\nsamples = 1\nvalue = 0.443"] ;
477 -> 478 ;
479 [label="mse = 0.0\nsamples = 1\nvalue = 0.398"] ;
477 -> 479 ;
480 [label="X[2] <= 0.378\nmse = 0.018\nsamples = 105\nvalue = 0.194"] ;
476 -> 480 ;
481 [label="X[0] <= 0.315\nmse = 0.017\nsamples = 99\nvalue = 0.189"] ;
480 -> 481 ;
482 [label="X[5] <= 0.493\nmse = 0.09\nsamples = 5\nvalue = 0.314"] ;
481 -> 482 ;
483 [label="mse = 0.0\nsamples = 1\nvalue = 0.857"] ;
482 -> 483 ;
484 [label="X[2] <= 0.308\nmse = 0.021\nsamples = 4\nvalue = 0.178"] ;
482 -> 484 ;
485 [label="mse = 0.0\nsamples = 1\nvalue = 0.427"] ;
484 -> 485 ;
486 [label="X[5] <= 0.784\nmse = 0.0\nsamples = 3\nvalue = 0.095"] ;
484 -> 486 ;
487 [label="X[1] <= 0.374\nmse = 0.0\nsamples = 2\nvalue = 0.103"] ;
486 -> 487 ;
488 [label="mse = 0.0\nsamples = 1\nvalue = 0.108"] ;
487 -> 488 ;
489 [label="mse = -0.0\nsamples = 1\nvalue = 0.097"] ;
487 -> 489 ;
490 [label="mse = 0.0\nsamples = 1\nvalue = 0.08"] ;
486 -> 490 ;
491 [label="X[2] <= 0.359\nmse = 0.012\nsamples = 94\nvalue = 0.183"] ;
481 -> 491 ;
492 [label="X[2] <= 0.308\nmse = 0.013\nsamples = 88\nvalue = 0.187"] ;
491 -> 492 ;
493 [label="X[0] <= 0.382\nmse = 0.003\nsamples = 27\nvalue = 0.149"] ;
492 -> 493 ;
494 [label="X[6] <= 0.295\nmse = 0.0\nsamples = 3\nvalue = 0.115"] ;
493 -> 494 ;
495 [label="mse = 0.0\nsamples = 1\nvalue = 0.14"] ;
494 -> 495 ;
496 [label="X[6] <= 0.324\nmse = 0.0\nsamples = 2\nvalue = 0.103"] ;
494 -> 496 ;
497 [label="mse = 0.0\nsamples = 1\nvalue = 0.108"] ;
496 -> 497 ;
498 [label="mse = -0.0\nsamples = 1\nvalue = 0.097"] ;
496 -> 498 ;
499 [label="X[6] <= 0.282\nmse = 0.003\nsamples = 24\nvalue = 0.153"] ;
493 -> 499 ;
500 [label="X[1] <= 0.198\nmse = 0.004\nsamples = 13\nvalue = 0.173"] ;
499 -> 500 ;
501 [label="mse = 0.0\nsamples = 1\nvalue = 0.284"] ;
500 -> 501 ;
502 [label="X[1] <= 0.281\nmse = 0.003\nsamples = 12\nvalue = 0.164"] ;
500 -> 502 ;
503 [label="mse = 0.0\nsamples = 5\nvalue = 0.14"] ;
502 -> 503 ;
504 [label="X[3] <= 0.69\nmse = 0.004\nsamples = 7\nvalue = 0.181"] ;
502 -> 504 ;
505 [label="X[5] <= 0.671\nmse = 0.005\nsamples = 4\nvalue = 0.212"] ;
504 -> 505 ;
506 [label="X[5] <= 0.582\nmse = 0.005\nsamples = 3\nvalue = 0.188"] ;
505 -> 506 ;
507 [label="mse = 0.0\nsamples = 2\nvalue = 0.14"] ;
506 -> 507 ;
508 [label="mse = 0.0\nsamples = 1\nvalue = 0.284"] ;
506 -> 508 ;
509 [label="mse = -0.0\nsamples = 1\nvalue = 0.284"] ;
505 -> 509 ;
510 [label="mse = 0.0\nsamples = 3\nvalue = 0.14"] ;
504 -> 510 ;
511 [label="X[6] <= 0.31\nmse = 0.001\nsamples = 11\nvalue = 0.129"] ;
499 -> 511 ;
512 [label="mse = 0.0\nsamples = 8\nvalue = 0.122"] ;
511 -> 512 ;
513 [label="X[1] <= 0.307\nmse = 0.003\nsamples = 3\nvalue = 0.146"] ;
511 -> 513 ;
514 [label="mse = 0.0\nsamples = 1\nvalue = 0.22"] ;
513 -> 514 ;
515 [label="mse = 0.0\nsamples = 2\nvalue = 0.108"] ;
513 -> 515 ;
516 [label="X[5] <= 0.869\nmse = 0.016\nsamples = 61\nvalue = 0.204"] ;
492 -> 516 ;
517 [label="X[3] <= 0.867\nmse = 0.017\nsamples = 56\nvalue = 0.213"] ;
516 -> 517 ;
518 [label="X[2] <= 0.327\nmse = 0.015\nsamples = 55\nvalue = 0.207"] ;
517 -> 518 ;
519 [label="X[5] <= 0.604\nmse = 0.021\nsamples = 24\nvalue = 0.24"] ;
518 -> 519 ;
520 [label="X[6] <= 0.297\nmse = 0.0\nsamples = 5\nvalue = 0.109"] ;
519 -> 520 ;
521 [label="mse = 0.0\nsamples = 1\nvalue = 0.122"] ;
520 -> 521 ;
522 [label="X[3] <= 0.581\nmse = 0.0\nsamples = 4\nvalue = 0.106"] ;
520 -> 522 ;
523 [label="mse = 0.0\nsamples = 1\nvalue = 0.097"] ;
522 -> 523 ;
524 [label="mse = -0.0\nsamples = 3\nvalue = 0.108"] ;
522 -> 524 ;
525 [label="X[0] <= 0.359\nmse = 0.021\nsamples = 19\nvalue = 0.274"] ;
519 -> 525 ;
526 [label="mse = 0.0\nsamples = 1\nvalue = 0.122"] ;
525 -> 526 ;
527 [label="X[0] <= 0.453\nmse = 0.021\nsamples = 18\nvalue = 0.283"] ;
525 -> 527 ;
528 [label="X[4] <= 0.93\nmse = 0.024\nsamples = 7\nvalue = 0.321"] ;
527 -> 528 ;
529 [label="X[4] <= 0.863\nmse = 0.017\nsamples = 4\nvalue = 0.411"] ;
528 -> 529 ;
530 [label="mse = 0.006\nsamples = 3\nvalue = 0.475"] ;
529 -> 530 ;
531 [label="mse = 0.0\nsamples = 1\nvalue = 0.22"] ;
529 -> 531 ;
532 [label="X[1] <= 0.358\nmse = 0.009\nsamples = 3\nvalue = 0.201"] ;
528 -> 532 ;
533 [label="mse = 0.0\nsamples = 1\nvalue = 0.331"] ;
532 -> 533 ;
534 [label="mse = 0.001\nsamples = 2\nvalue = 0.136"] ;
532 -> 534 ;
535 [label="X[0] <= 0.524\nmse = 0.017\nsamples = 11\nvalue = 0.258"] ;
527 -> 535 ;
536 [label="X[4] <= 0.854\nmse = 0.017\nsamples = 10\nvalue = 0.247"] ;
535 -> 536 ;
537 [label="mse = 0.009\nsamples = 6\nvalue = 0.174"] ;
536 -> 537 ;
538 [label="mse = 0.01\nsamples = 4\nvalue = 0.356"] ;
536 -> 538 ;
539 [label="mse = -0.0\nsamples = 1\nvalue = 0.373"] ;
535 -> 539 ;
540 [label="X[1] <= 0.146\nmse = 0.009\nsamples = 31\nvalue = 0.181"] ;
518 -> 540 ;
541 [label="X[2] <= 0.349\nmse = 0.016\nsamples = 2\nvalue = 0.325"] ;
540 -> 541 ;
542 [label="mse = 0.0\nsamples = 1\nvalue = 0.198"] ;
541 -> 542 ;
543 [label="mse = -0.0\nsamples = 1\nvalue = 0.453"] ;
541 -> 543 ;
544 [label="X[4] <= 0.829\nmse = 0.007\nsamples = 29\nvalue = 0.171"] ;
540 -> 544 ;
545 [label="mse = 0.0\nsamples = 1\nvalue = 0.298"] ;
544 -> 545 ;
546 [label="X[2] <= 0.348\nmse = 0.006\nsamples = 28\nvalue = 0.166"] ;
544 -> 546 ;
547 [label="X[3] <= 0.801\nmse = 0.005\nsamples = 15\nvalue = 0.148"] ;
546 -> 547 ;
548 [label="X[5] <= 0.672\nmse = 0.006\nsamples = 10\nvalue = 0.17"] ;
547 -> 548 ;
549 [label="mse = 0.002\nsamples = 7\nvalue = 0.144"] ;
548 -> 549 ;
550 [label="mse = 0.011\nsamples = 3\nvalue = 0.23"] ;
548 -> 550 ;
551 [label="X[6] <= 0.317\nmse = 0.0\nsamples = 5\nvalue = 0.104"] ;
547 -> 551 ;
552 [label="mse = -0.0\nsamples = 3\nvalue = 0.108"] ;
551 -> 552 ;
553 [label="mse = -0.0\nsamples = 2\nvalue = 0.097"] ;
551 -> 553 ;
554 [label="X[1] <= 0.335\nmse = 0.007\nsamples = 13\nvalue = 0.188"] ;
546 -> 554 ;
555 [label="X[6] <= 0.335\nmse = 0.007\nsamples = 6\nvalue = 0.24"] ;
554 -> 555 ;
556 [label="mse = 0.0\nsamples = 1\nvalue = 0.298"] ;
555 -> 556 ;
557 [label="mse = 0.007\nsamples = 5\nvalue = 0.228"] ;
555 -> 557 ;
558 [label="X[6] <= 0.322\nmse = 0.003\nsamples = 7\nvalue = 0.143"] ;
554 -> 558 ;
559 [label="mse = 0.0\nsamples = 1\nvalue = 0.22"] ;
558 -> 559 ;
560 [label="mse = 0.002\nsamples = 6\nvalue = 0.131"] ;
558 -> 560 ;
561 [label="mse = 0.0\nsamples = 1\nvalue = 0.554"] ;
517 -> 561 ;
562 [label="X[2] <= 0.326\nmse = 0.0\nsamples = 5\nvalue = 0.11"] ;
516 -> 562 ;
563 [label="X[6] <= 0.301\nmse = 0.0\nsamples = 4\nvalue = 0.115"] ;
562 -> 563 ;
564 [label="mse = 0.0\nsamples = 2\nvalue = 0.122"] ;
563 -> 564 ;
565 [label="mse = 0.0\nsamples = 2\nvalue = 0.108"] ;
563 -> 565 ;
566 [label="mse = -0.0\nsamples = 1\nvalue = 0.088"] ;
562 -> 566 ;
567 [label="X[3] <= 0.754\nmse = 0.004\nsamples = 6\nvalue = 0.116"] ;
491 -> 567 ;
568 [label="mse = 0.0\nsamples = 1\nvalue = 0.248"] ;
567 -> 568 ;
569 [label="X[6] <= 0.327\nmse = 0.0\nsamples = 5\nvalue = 0.089"] ;
567 -> 569 ;
570 [label="mse = 0.0\nsamples = 1\nvalue = 0.108"] ;
569 -> 570 ;
571 [label="X[6] <= 0.353\nmse = 0.0\nsamples = 4\nvalue = 0.084"] ;
569 -> 571 ;
572 [label="mse = 0.0\nsamples = 2\nvalue = 0.088"] ;
571 -> 572 ;
573 [label="mse = -0.0\nsamples = 2\nvalue = 0.08"] ;
571 -> 573 ;
574 [label="X[3] <= 0.662\nmse = 0.02\nsamples = 6\nvalue = 0.276"] ;
480 -> 574 ;
575 [label="mse = 0.0\nsamples = 1\nvalue = 0.498"] ;
574 -> 575 ;
576 [label="X[5] <= 0.864\nmse = 0.012\nsamples = 5\nvalue = 0.231"] ;
574 -> 576 ;
577 [label="X[0] <= 0.512\nmse = 0.005\nsamples = 3\nvalue = 0.164"] ;
576 -> 577 ;
578 [label="X[3] <= 0.776\nmse = 0.002\nsamples = 2\nvalue = 0.206"] ;
577 -> 578 ;
579 [label="mse = 0.0\nsamples = 1\nvalue = 0.164"] ;
578 -> 579 ;
580 [label="mse = -0.0\nsamples = 1\nvalue = 0.248"] ;
578 -> 580 ;
581 [label="mse = -0.0\nsamples = 1\nvalue = 0.08"] ;
577 -> 581 ;
582 [label="X[1] <= 0.408\nmse = 0.007\nsamples = 2\nvalue = 0.331"] ;
576 -> 582 ;
583 [label="mse = 0.0\nsamples = 1\nvalue = 0.415"] ;
582 -> 583 ;
584 [label="mse = 0.0\nsamples = 1\nvalue = 0.248"] ;
582 -> 584 ;
585 [label="X[6] <= 0.317\nmse = 0.023\nsamples = 9\nvalue = 0.287"] ;
475 -> 585 ;
586 [label="X[0] <= 0.369\nmse = 0.019\nsamples = 7\nvalue = 0.241"] ;
585 -> 586 ;
587 [label="mse = 0.0\nsamples = 1\nvalue = 0.14"] ;
586 -> 587 ;
588 [label="X[1] <= 0.238\nmse = 0.02\nsamples = 6\nvalue = 0.258"] ;
586 -> 588 ;
589 [label="X[1] <= 0.114\nmse = 0.005\nsamples = 3\nvalue = 0.19"] ;
588 -> 589 ;
590 [label="mse = 0.0\nsamples = 1\nvalue = 0.284"] ;
589 -> 590 ;
591 [label="X[4] <= 0.913\nmse = 0.0\nsamples = 2\nvalue = 0.143"] ;
589 -> 591 ;
592 [label="mse = 0.0\nsamples = 1\nvalue = 0.164"] ;
591 -> 592 ;
593 [label="mse = 0.0\nsamples = 1\nvalue = 0.122"] ;
591 -> 593 ;
594 [label="X[6] <= 0.297\nmse = 0.026\nsamples = 3\nvalue = 0.327"] ;
588 -> 594 ;
595 [label="X[3] <= 0.947\nmse = 0.004\nsamples = 2\nvalue = 0.436"] ;
594 -> 595 ;
596 [label="mse = 0.0\nsamples = 1\nvalue = 0.373"] ;
595 -> 596 ;
597 [label="mse = 0.0\nsamples = 1\nvalue = 0.498"] ;
595 -> 597 ;
598 [label="mse = -0.0\nsamples = 1\nvalue = 0.108"] ;
594 -> 598 ;
599 [label="X[3] <= 0.943\nmse = 0.003\nsamples = 2\nvalue = 0.448"] ;
585 -> 599 ;
600 [label="mse = 0.0\nsamples = 1\nvalue = 0.498"] ;
599 -> 600 ;
601 [label="mse = -0.0\nsamples = 1\nvalue = 0.398"] ;
599 -> 601 ;
602 [label="X[6] <= 0.354\nmse = 0.002\nsamples = 7\nvalue = 0.133"] ;
474 -> 602 ;
603 [label="X[0] <= 0.506\nmse = 0.002\nsamples = 6\nvalue = 0.142"] ;
602 -> 603 ;
604 [label="X[1] <= 0.278\nmse = 0.0\nsamples = 4\nvalue = 0.113"] ;
603 -> 604 ;
605 [label="X[3] <= 0.751\nmse = 0.0\nsamples = 2\nvalue = 0.103"] ;
604 -> 605 ;
606 [label="mse = 0.0\nsamples = 1\nvalue = 0.108"] ;
605 -> 606 ;
607 [label="mse = -0.0\nsamples = 1\nvalue = 0.097"] ;
605 -> 607 ;
608 [label="mse = -0.0\nsamples = 2\nvalue = 0.122"] ;
604 -> 608 ;
609 [label="X[1] <= 0.314\nmse = 0.0\nsamples = 2\nvalue = 0.2"] ;
603 -> 609 ;
610 [label="mse = 0.0\nsamples = 1\nvalue = 0.179"] ;
609 -> 610 ;
611 [label="mse = 0.0\nsamples = 1\nvalue = 0.22"] ;
609 -> 611 ;
612 [label="mse = -0.0\nsamples = 1\nvalue = 0.08"] ;
602 -> 612 ;
613 [label="X[6] <= 0.276\nmse = 0.006\nsamples = 82\nvalue = 0.157"] ;
411 -> 613 ;
614 [label="X[3] <= 0.705\nmse = 0.006\nsamples = 3\nvalue = 0.276"] ;
613 -> 614 ;
615 [label="mse = 0.0\nsamples = 1\nvalue = 0.164"] ;
614 -> 615 ;
616 [label="mse = -0.0\nsamples = 2\nvalue = 0.331"] ;
614 -> 616 ;
617 [label="X[4] <= 0.921\nmse = 0.005\nsamples = 79\nvalue = 0.152"] ;
613 -> 617 ;
618 [label="X[6] <= 0.341\nmse = 0.002\nsamples = 45\nvalue = 0.133"] ;
617 -> 618 ;
619 [label="X[2] <= 0.62\nmse = 0.002\nsamples = 31\nvalue = 0.14"] ;
618 -> 619 ;
620 [label="X[5] <= 0.547\nmse = 0.002\nsamples = 30\nvalue = 0.142"] ;
619 -> 620 ;
621 [label="X[4] <= 0.874\nmse = 0.003\nsamples = 5\nvalue = 0.157"] ;
620 -> 621 ;
622 [label="X[1] <= 0.359\nmse = 0.001\nsamples = 4\nvalue = 0.135"] ;
621 -> 622 ;
623 [label="X[3] <= 0.494\nmse = 0.0\nsamples = 2\nvalue = 0.11"] ;
622 -> 623 ;
624 [label="mse = 0.0\nsamples = 1\nvalue = 0.122"] ;
623 -> 624 ;
625 [label="mse = 0.0\nsamples = 1\nvalue = 0.097"] ;
623 -> 625 ;
626 [label="X[1] <= 0.395\nmse = 0.001\nsamples = 2\nvalue = 0.16"] ;
622 -> 626 ;
627 [label="mse = 0.0\nsamples = 1\nvalue = 0.122"] ;
626 -> 627 ;
628 [label="mse = 0.0\nsamples = 1\nvalue = 0.198"] ;
626 -> 628 ;
629 [label="mse = -0.0\nsamples = 1\nvalue = 0.248"] ;
621 -> 629 ;
630 [label="X[1] <= 0.282\nmse = 0.002\nsamples = 25\nvalue = 0.138"] ;
620 -> 630 ;
631 [label="X[6] <= 0.294\nmse = 0.0\nsamples = 10\nvalue = 0.122"] ;
630 -> 631 ;
632 [label="mse = 0.0\nsamples = 4\nvalue = 0.14"] ;
631 -> 632 ;
633 [label="X[6] <= 0.31\nmse = 0.0\nsamples = 6\nvalue = 0.11"] ;
631 -> 633 ;
634 [label="mse = -0.0\nsamples = 3\nvalue = 0.122"] ;
633 -> 634 ;
635 [label="mse = 0.0\nsamples = 3\nvalue = 0.097"] ;
633 -> 635 ;
636 [label="X[0] <= 0.608\nmse = 0.002\nsamples = 15\nvalue = 0.149"] ;
630 -> 636 ;
637 [label="X[3] <= 0.622\nmse = 0.001\nsamples = 6\nvalue = 0.129"] ;
636 -> 637 ;
638 [label="mse = 0.0\nsamples = 1\nvalue = 0.198"] ;
637 -> 638 ;
639 [label="X[0] <= 0.591\nmse = 0.0\nsamples = 5\nvalue = 0.115"] ;
637 -> 639 ;
640 [label="X[2] <= 0.307\nmse = 0.0\nsamples = 4\nvalue = 0.109"] ;
639 -> 640 ;
641 [label="mse = 0.0\nsamples = 1\nvalue = 0.122"] ;
640 -> 641 ;
642 [label="X[5] <= 0.586\nmse = 0.0\nsamples = 3\nvalue = 0.105"] ;
640 -> 642 ;
643 [label="mse = 0.0\nsamples = 1\nvalue = 0.097"] ;
642 -> 643 ;
644 [label="mse = 0.0\nsamples = 2\nvalue = 0.108"] ;
642 -> 644 ;
645 [label="mse = -0.0\nsamples = 1\nvalue = 0.14"] ;
639 -> 645 ;
646 [label="X[0] <= 0.65\nmse = 0.003\nsamples = 9\nvalue = 0.163"] ;
636 -> 646 ;
647 [label="X[2] <= 0.552\nmse = 0.0\nsamples = 4\nvalue = 0.123"] ;
646 -> 647 ;
648 [label="X[4] <= 0.848\nmse = 0.0\nsamples = 3\nvalue = 0.118"] ;
647 -> 648 ;
649 [label="mse = -0.0\nsamples = 2\nvalue = 0.122"] ;
648 -> 649 ;
650 [label="mse = 0.0\nsamples = 1\nvalue = 0.108"] ;
648 -> 650 ;
651 [label="mse = -0.0\nsamples = 1\nvalue = 0.14"] ;
647 -> 651 ;
652 [label="X[0] <= 0.692\nmse = 0.002\nsamples = 5\nvalue = 0.195"] ;
646 -> 652 ;
653 [label="X[0] <= 0.67\nmse = 0.002\nsamples = 4\nvalue = 0.208"] ;
652 -> 653 ;
654 [label="X[1] <= 0.325\nmse = 0.002\nsamples = 3\nvalue = 0.195"] ;
653 -> 654 ;
655 [label="X[3] <= 0.806\nmse = 0.001\nsamples = 2\nvalue = 0.223"] ;
654 -> 655 ;
656 [label="mse = 0.0\nsamples = 1\nvalue = 0.248"] ;
655 -> 656 ;
657 [label="mse = 0.0\nsamples = 1\nvalue = 0.198"] ;
655 -> 657 ;
658 [label="mse = -0.0\nsamples = 1\nvalue = 0.14"] ;
654 -> 658 ;
659 [label="mse = -0.0\nsamples = 1\nvalue = 0.248"] ;
653 -> 659 ;
660 [label="mse = -0.0\nsamples = 1\nvalue = 0.14"] ;
652 -> 660 ;
661 [label="mse = -0.0\nsamples = 1\nvalue = 0.108"] ;
619 -> 661 ;
662 [label="X[3] <= 0.25\nmse = 0.003\nsamples = 14\nvalue = 0.116"] ;
618 -> 662 ;
663 [label="mse = 0.0\nsamples = 1\nvalue = 0.164"] ;
662 -> 663 ;
664 [label="X[2] <= 0.325\nmse = 0.003\nsamples = 13\nvalue = 0.113"] ;
662 -> 664 ;
665 [label="mse = 0.0\nsamples = 1\nvalue = 0.27"] ;
664 -> 665 ;
666 [label="X[2] <= 0.352\nmse = 0.001\nsamples = 12\nvalue = 0.099"] ;
664 -> 666 ;
667 [label="X[3] <= 0.713\nmse = 0.0\nsamples = 3\nvalue = 0.086"] ;
666 -> 667 ;
668 [label="mse = 0.0\nsamples = 1\nvalue = 0.08"] ;
667 -> 668 ;
669 [label="mse = -0.0\nsamples = 2\nvalue = 0.088"] ;
667 -> 669 ;
670 [label="X[1] <= 0.376\nmse = 0.001\nsamples = 9\nvalue = 0.104"] ;
666 -> 670 ;
671 [label="X[1] <= 0.32\nmse = 0.002\nsamples = 7\nvalue = 0.111"] ;
670 -> 671 ;
672 [label="X[6] <= 0.35\nmse = 0.0\nsamples = 3\nvalue = 0.086"] ;
671 -> 672 ;
673 [label="mse = -0.0\nsamples = 2\nvalue = 0.088"] ;
672 -> 673 ;
674 [label="mse = 0.0\nsamples = 1\nvalue = 0.08"] ;
672 -> 674 ;
675 [label="X[3] <= 0.706\nmse = 0.002\nsamples = 4\nvalue = 0.13"] ;
671 -> 675 ;
676 [label="mse = 0.0\nsamples = 2\nvalue = 0.088"] ;
675 -> 676 ;
677 [label="X[6] <= 0.348\nmse = 0.0\nsamples = 2\nvalue = 0.172"] ;
675 -> 677 ;
678 [label="mse = 0.0\nsamples = 1\nvalue = 0.179"] ;
677 -> 678 ;
679 [label="mse = 0.0\nsamples = 1\nvalue = 0.164"] ;
677 -> 679 ;
680 [label="mse = -0.0\nsamples = 2\nvalue = 0.08"] ;
670 -> 680 ;
681 [label="X[3] <= 0.508\nmse = 0.007\nsamples = 34\nvalue = 0.177"] ;
617 -> 681 ;
682 [label="X[1] <= 0.307\nmse = 0.0\nsamples = 3\nvalue = 0.114"] ;
681 -> 682 ;
683 [label="mse = 0.0\nsamples = 1\nvalue = 0.097"] ;
682 -> 683 ;
684 [label="mse = 0.0\nsamples = 2\nvalue = 0.122"] ;
682 -> 684 ;
685 [label="X[3] <= 0.977\nmse = 0.008\nsamples = 31\nvalue = 0.183"] ;
681 -> 685 ;
686 [label="X[3] <= 0.829\nmse = 0.007\nsamples = 30\nvalue = 0.179"] ;
685 -> 686 ;
687 [label="X[0] <= 0.632\nmse = 0.008\nsamples = 15\nvalue = 0.206"] ;
686 -> 687 ;
688 [label="X[5] <= 0.8\nmse = 0.009\nsamples = 10\nvalue = 0.235"] ;
687 -> 688 ;
689 [label="X[1] <= 0.268\nmse = 0.009\nsamples = 9\nvalue = 0.224"] ;
688 -> 689 ;
690 [label="mse = 0.0\nsamples = 1\nvalue = 0.08"] ;
689 -> 690 ;
691 [label="X[5] <= 0.705\nmse = 0.007\nsamples = 8\nvalue = 0.242"] ;
689 -> 691 ;
692 [label="X[0] <= 0.57\nmse = 0.003\nsamples = 7\nvalue = 0.217"] ;
691 -> 692 ;
693 [label="X[5] <= 0.645\nmse = 0.004\nsamples = 2\nvalue = 0.264"] ;
692 -> 693 ;
694 [label="mse = 0.0\nsamples = 1\nvalue = 0.198"] ;
693 -> 694 ;
695 [label="mse = -0.0\nsamples = 1\nvalue = 0.331"] ;
693 -> 695 ;
696 [label="X[1] <= 0.391\nmse = 0.001\nsamples = 5\nvalue = 0.198"] ;
692 -> 696 ;
697 [label="X[0] <= 0.618\nmse = 0.0\nsamples = 4\nvalue = 0.186"] ;
696 -> 697 ;
698 [label="X[6] <= 0.354\nmse = 0.0\nsamples = 3\nvalue = 0.174"] ;
697 -> 698 ;
699 [label="mse = 0.0\nsamples = 2\nvalue = 0.179"] ;
698 -> 699 ;
700 [label="mse = -0.0\nsamples = 1\nvalue = 0.164"] ;
698 -> 700 ;
701 [label="mse = 0.0\nsamples = 1\nvalue = 0.22"] ;
697 -> 701 ;
702 [label="mse = -0.0\nsamples = 1\nvalue = 0.248"] ;
696 -> 702 ;
703 [label="mse = -0.0\nsamples = 1\nvalue = 0.415"] ;
691 -> 703 ;
704 [label="mse = -0.0\nsamples = 1\nvalue = 0.331"] ;
688 -> 704 ;
705 [label="X[1] <= 0.35\nmse = 0.003\nsamples = 5\nvalue = 0.149"] ;
687 -> 705 ;
706 [label="X[6] <= 0.329\nmse = 0.0\nsamples = 2\nvalue = 0.2"] ;
705 -> 706 ;
707 [label="mse = 0.0\nsamples = 1\nvalue = 0.22"] ;
706 -> 707 ;
708 [label="mse = 0.0\nsamples = 1\nvalue = 0.179"] ;
706 -> 708 ;
709 [label="X[1] <= 0.387\nmse = 0.002\nsamples = 3\nvalue = 0.116"] ;
705 -> 709 ;
710 [label="X[3] <= 0.619\nmse = 0.0\nsamples = 2\nvalue = 0.084"] ;
709 -> 710 ;
711 [label="mse = 0.0\nsamples = 1\nvalue = 0.08"] ;
710 -> 711 ;
712 [label="mse = -0.0\nsamples = 1\nvalue = 0.088"] ;
710 -> 712 ;
713 [label="mse = 0.0\nsamples = 1\nvalue = 0.179"] ;
709 -> 713 ;
714 [label="X[6] <= 0.282\nmse = 0.004\nsamples = 15\nvalue = 0.151"] ;
686 -> 714 ;
715 [label="X[3] <= 0.919\nmse = 0.005\nsamples = 2\nvalue = 0.212"] ;
714 -> 715 ;
716 [label="mse = 0.0\nsamples = 1\nvalue = 0.284"] ;
715 -> 716 ;
717 [label="mse = 0.0\nsamples = 1\nvalue = 0.14"] ;
715 -> 717 ;
718 [label="X[5] <= 0.901\nmse = 0.003\nsamples = 13\nvalue = 0.141"] ;
714 -> 718 ;
719 [label="X[6] <= 0.337\nmse = 0.0\nsamples = 5\nvalue = 0.1"] ;
718 -> 719 ;
720 [label="mse = 0.0\nsamples = 2\nvalue = 0.122"] ;
719 -> 720 ;
721 [label="X[2] <= 0.359\nmse = 0.0\nsamples = 3\nvalue = 0.086"] ;
719 -> 721 ;
722 [label="mse = -0.0\nsamples = 2\nvalue = 0.088"] ;
721 -> 722 ;
723 [label="mse = 0.0\nsamples = 1\nvalue = 0.08"] ;
721 -> 723 ;
724 [label="X[3] <= 0.926\nmse = 0.003\nsamples = 8\nvalue = 0.167"] ;
718 -> 724 ;
725 [label="X[3] <= 0.923\nmse = 0.001\nsamples = 2\nvalue = 0.223"] ;
724 -> 725 ;
726 [label="mse = 0.0\nsamples = 1\nvalue = 0.198"] ;
725 -> 726 ;
727 [label="mse = 0.0\nsamples = 1\nvalue = 0.248"] ;
725 -> 727 ;
728 [label="X[4] <= 0.933\nmse = 0.003\nsamples = 6\nvalue = 0.149"] ;
724 -> 728 ;
729 [label="X[0] <= 0.731\nmse = 0.001\nsamples = 2\nvalue = 0.223"] ;
728 -> 729 ;
730 [label="mse = 0.0\nsamples = 1\nvalue = 0.198"] ;
729 -> 730 ;
731 [label="mse = 0.0\nsamples = 1\nvalue = 0.248"] ;
729 -> 731 ;
732 [label="X[6] <= 0.303\nmse = 0.0\nsamples = 4\nvalue = 0.112"] ;
728 -> 732 ;
733 [label="mse = 0.0\nsamples = 1\nvalue = 0.122"] ;
732 -> 733 ;
734 [label="mse = -0.0\nsamples = 3\nvalue = 0.108"] ;
732 -> 734 ;
735 [label="mse = 0.0\nsamples = 1\nvalue = 0.331"] ;
685 -> 735 ;
736 [label="X[3] <= 0.623\nmse = 0.006\nsamples = 1764\nvalue = 0.086"] ;
326 -> 736 ;
737 [label="X[0] <= 0.721\nmse = 0.004\nsamples = 1402\nvalue = 0.073"] ;
736 -> 737 ;
738 [label="X[6] <= 0.431\nmse = 0.004\nsamples = 1007\nvalue = 0.077"] ;
737 -> 738 ;
739 [label="X[5] <= 0.503\nmse = 0.005\nsamples = 212\nvalue = 0.099"] ;
738 -> 739 ;
740 [label="X[2] <= 0.499\nmse = 0.003\nsamples = 161\nvalue = 0.089"] ;
739 -> 740 ;
741 [label="X[6] <= 0.398\nmse = 0.003\nsamples = 153\nvalue = 0.087"] ;
740 -> 741 ;
742 [label="X[3] <= 0.3\nmse = 0.003\nsamples = 69\nvalue = 0.1"] ;
741 -> 742 ;
743 [label="X[5] <= 0.185\nmse = 0.003\nsamples = 38\nvalue = 0.094"] ;
742 -> 743 ;
744 [label="X[1] <= 0.462\nmse = 0.004\nsamples = 28\nvalue = 0.101"] ;
743 -> 744 ;
745 [label="X[4] <= 0.801\nmse = 0.001\nsamples = 21\nvalue = 0.086"] ;
744 -> 745 ;
746 [label="mse = 0.0\nsamples = 3\nvalue = 0.06"] ;
745 -> 746 ;
747 [label="X[0] <= 0.507\nmse = 0.001\nsamples = 18\nvalue = 0.091"] ;
745 -> 747 ;
748 [label="X[0] <= 0.386\nmse = 0.002\nsamples = 7\nvalue = 0.109"] ;
747 -> 748 ;
749 [label="X[0] <= 0.359\nmse = 0.001\nsamples = 2\nvalue = 0.163"] ;
748 -> 749 ;
750 [label="mse = 0.0\nsamples = 1\nvalue = 0.185"] ;
749 -> 750 ;
751 [label="mse = 0.0\nsamples = 1\nvalue = 0.14"] ;
749 -> 751 ;
752 [label="X[3] <= 0.197\nmse = 0.001\nsamples = 5\nvalue = 0.087"] ;
748 -> 752 ;
753 [label="mse = 0.0\nsamples = 1\nvalue = 0.151"] ;
752 -> 753 ;
754 [label="X[4] <= 0.894\nmse = 0.0\nsamples = 4\nvalue = 0.071"] ;
752 -> 754 ;
755 [label="mse = 0.0\nsamples = 2\nvalue = 0.074"] ;
754 -> 755 ;
756 [label="mse = 0.0\nsamples = 2\nvalue = 0.069"] ;
754 -> 756 ;
757 [label="X[2] <= 0.408\nmse = 0.001\nsamples = 11\nvalue = 0.079"] ;
747 -> 757 ;
758 [label="X[6] <= 0.372\nmse = 0.001\nsamples = 6\nvalue = 0.091"] ;
757 -> 758 ;
759 [label="mse = 0.0\nsamples = 3\nvalue = 0.074"] ;
758 -> 759 ;
760 [label="X[0] <= 0.626\nmse = 0.001\nsamples = 3\nvalue = 0.109"] ;
758 -> 760 ;
761 [label="X[0] <= 0.614\nmse = 0.0\nsamples = 2\nvalue = 0.131"] ;
760 -> 761 ;
762 [label="mse = 0.0\nsamples = 1\nvalue = 0.14"] ;
761 -> 762 ;
763 [label="mse = 0.0\nsamples = 1\nvalue = 0.122"] ;
761 -> 763 ;
764 [label="mse = 0.0\nsamples = 1\nvalue = 0.064"] ;
760 -> 764 ;
765 [label="X[6] <= 0.394\nmse = 0.0\nsamples = 5\nvalue = 0.065"] ;
757 -> 765 ;
766 [label="X[4] <= 0.842\nmse = 0.0\nsamples = 3\nvalue = 0.069"] ;
765 -> 766 ;
767 [label="mse = 0.0\nsamples = 1\nvalue = 0.074"] ;
766 -> 767 ;
768 [label="X[3] <= 0.207\nmse = 0.0\nsamples = 2\nvalue = 0.066"] ;
766 -> 768 ;
769 [label="mse = 0.0\nsamples = 1\nvalue = 0.064"] ;
768 -> 769 ;
770 [label="mse = -0.0\nsamples = 1\nvalue = 0.069"] ;
768 -> 770 ;
771 [label="mse = -0.0\nsamples = 2\nvalue = 0.06"] ;
765 -> 771 ;
772 [label="X[4] <= 0.858\nmse = 0.01\nsamples = 7\nvalue = 0.146"] ;
744 -> 772 ;
773 [label="mse = 0.0\nsamples = 2\nvalue = 0.06"] ;
772 -> 773 ;
774 [label="X[3] <= 0.202\nmse = 0.01\nsamples = 5\nvalue = 0.181"] ;
772 -> 774 ;
775 [label="mse = 0.0\nsamples = 1\nvalue = 0.355"] ;
774 -> 775 ;
776 [label="X[2] <= 0.402\nmse = 0.004\nsamples = 4\nvalue = 0.137"] ;
774 -> 776 ;
777 [label="mse = 0.0\nsamples = 1\nvalue = 0.228"] ;
776 -> 777 ;
778 [label="X[4] <= 0.914\nmse = 0.001\nsamples = 3\nvalue = 0.107"] ;
776 -> 778 ;
779 [label="mse = 0.0\nsamples = 1\nvalue = 0.06"] ;
778 -> 779 ;
780 [label="mse = 0.0\nsamples = 2\nvalue = 0.131"] ;
778 -> 780 ;
781 [label="X[4] <= 0.942\nmse = 0.0\nsamples = 10\nvalue = 0.074"] ;
743 -> 781 ;
782 [label="X[6] <= 0.369\nmse = 0.0\nsamples = 8\nvalue = 0.068"] ;
781 -> 782 ;
783 [label="mse = 0.0\nsamples = 2\nvalue = 0.074"] ;
782 -> 783 ;
784 [label="X[6] <= 0.386\nmse = 0.0\nsamples = 6\nvalue = 0.066"] ;
782 -> 784 ;
785 [label="mse = 0.0\nsamples = 3\nvalue = 0.069"] ;
784 -> 785 ;
786 [label="mse = 0.0\nsamples = 3\nvalue = 0.064"] ;
784 -> 786 ;
787 [label="X[2] <= 0.391\nmse = 0.001\nsamples = 2\nvalue = 0.095"] ;
781 -> 787 ;
788 [label="mse = 0.0\nsamples = 1\nvalue = 0.069"] ;
787 -> 788 ;
789 [label="mse = -0.0\nsamples = 1\nvalue = 0.122"] ;
787 -> 789 ;
790 [label="X[6] <= 0.38\nmse = 0.003\nsamples = 31\nvalue = 0.108"] ;
742 -> 790 ;
791 [label="X[0] <= 0.466\nmse = 0.001\nsamples = 12\nvalue = 0.091"] ;
790 -> 791 ;
792 [label="X[3] <= 0.466\nmse = 0.0\nsamples = 5\nvalue = 0.072"] ;
791 -> 792 ;
793 [label="mse = 0.0\nsamples = 2\nvalue = 0.069"] ;
792 -> 793 ;
794 [label="mse = 0.0\nsamples = 3\nvalue = 0.074"] ;
792 -> 794 ;
795 [label="X[3] <= 0.483\nmse = 0.001\nsamples = 7\nvalue = 0.105"] ;
791 -> 795 ;
796 [label="X[0] <= 0.604\nmse = 0.001\nsamples = 5\nvalue = 0.086"] ;
795 -> 796 ;
797 [label="X[6] <= 0.369\nmse = 0.0\nsamples = 4\nvalue = 0.073"] ;
796 -> 797 ;
798 [label="mse = 0.0\nsamples = 3\nvalue = 0.074"] ;
797 -> 798 ;
799 [label="mse = -0.0\nsamples = 1\nvalue = 0.069"] ;
797 -> 799 ;
800 [label="mse = -0.0\nsamples = 1\nvalue = 0.14"] ;
796 -> 800 ;
801 [label="mse = -0.0\nsamples = 2\nvalue = 0.151"] ;
795 -> 801 ;
802 [label="X[4] <= 0.849\nmse = 0.004\nsamples = 19\nvalue = 0.118"] ;
790 -> 802 ;
803 [label="X[2] <= 0.409\nmse = 0.004\nsamples = 9\nvalue = 0.146"] ;
802 -> 803 ;
804 [label="X[1] <= 0.372\nmse = 0.004\nsamples = 8\nvalue = 0.133"] ;
803 -> 804 ;
805 [label="mse = 0.0\nsamples = 2\nvalue = 0.06"] ;
804 -> 805 ;
806 [label="X[5] <= 0.391\nmse = 0.002\nsamples = 6\nvalue = 0.157"] ;
804 -> 806 ;
807 [label="X[5] <= 0.359\nmse = 0.003\nsamples = 3\nvalue = 0.189"] ;
806 -> 807 ;
808 [label="mse = 0.0\nsamples = 1\nvalue = 0.122"] ;
807 -> 808 ;
809 [label="X[4] <= 0.801\nmse = 0.001\nsamples = 2\nvalue = 0.223"] ;
807 -> 809 ;
810 [label="mse = 0.0\nsamples = 1\nvalue = 0.248"] ;
809 -> 810 ;
811 [label="mse = 0.0\nsamples = 1\nvalue = 0.198"] ;
809 -> 811 ;
812 [label="X[5] <= 0.457\nmse = 0.0\nsamples = 3\nvalue = 0.125"] ;
806 -> 812 ;
813 [label="mse = -0.0\nsamples = 2\nvalue = 0.122"] ;
812 -> 813 ;
814 [label="mse = -0.0\nsamples = 1\nvalue = 0.131"] ;
812 -> 814 ;
815 [label="mse = -0.0\nsamples = 1\nvalue = 0.248"] ;
803 -> 815 ;
816 [label="X[2] <= 0.382\nmse = 0.002\nsamples = 10\nvalue = 0.093"] ;
802 -> 816 ;
817 [label="X[3] <= 0.4\nmse = 0.001\nsamples = 3\nvalue = 0.143"] ;
816 -> 817 ;
818 [label="mse = 0.0\nsamples = 1\nvalue = 0.185"] ;
817 -> 818 ;
819 [label="mse = -0.0\nsamples = 2\nvalue = 0.122"] ;
817 -> 819 ;
820 [label="X[0] <= 0.417\nmse = 0.001\nsamples = 7\nvalue = 0.072"] ;
816 -> 820 ;
821 [label="X[2] <= 0.407\nmse = 0.001\nsamples = 3\nvalue = 0.086"] ;
820 -> 821 ;
822 [label="mse = -0.0\nsamples = 2\nvalue = 0.064"] ;
821 -> 822 ;
823 [label="mse = -0.0\nsamples = 1\nvalue = 0.131"] ;
821 -> 823 ;
824 [label="X[4] <= 0.908\nmse = 0.0\nsamples = 4\nvalue = 0.061"] ;
820 -> 824 ;
825 [label="mse = 0.0\nsamples = 3\nvalue = 0.06"] ;
824 -> 825 ;
826 [label="mse = 0.0\nsamples = 1\nvalue = 0.064"] ;
824 -> 826 ;
827 [label="X[6] <= 0.423\nmse = 0.002\nsamples = 84\nvalue = 0.076"] ;
741 -> 827 ;
828 [label="X[1] <= 0.417\nmse = 0.003\nsamples = 59\nvalue = 0.081"] ;
827 -> 828 ;
829 [label="X[6] <= 0.414\nmse = 0.003\nsamples = 27\nvalue = 0.096"] ;
828 -> 829 ;
830 [label="X[5] <= 0.221\nmse = 0.004\nsamples = 21\nvalue = 0.107"] ;
829 -> 830 ;
831 [label="X[6] <= 0.41\nmse = 0.0\nsamples = 4\nvalue = 0.053"] ;
830 -> 831 ;
832 [label="mse = 0.0\nsamples = 1\nvalue = 0.056"] ;
831 -> 832 ;
833 [label="mse = 0.0\nsamples = 3\nvalue = 0.053"] ;
831 -> 833 ;
834 [label="X[4] <= 0.857\nmse = 0.004\nsamples = 17\nvalue = 0.12"] ;
830 -> 834 ;
835 [label="X[6] <= 0.409\nmse = 0.002\nsamples = 8\nvalue = 0.09"] ;
834 -> 835 ;
836 [label="X[3] <= 0.212\nmse = 0.0\nsamples = 6\nvalue = 0.066"] ;
835 -> 836 ;
837 [label="mse = 0.0\nsamples = 1\nvalue = 0.115"] ;
836 -> 837 ;
838 [label="mse = -0.0\nsamples = 5\nvalue = 0.056"] ;
836 -> 838 ;
839 [label="mse = -0.0\nsamples = 2\nvalue = 0.164"] ;
835 -> 839 ;
840 [label="X[2] <= 0.401\nmse = 0.004\nsamples = 9\nvalue = 0.146"] ;
834 -> 840 ;
841 [label="X[1] <= 0.349\nmse = 0.002\nsamples = 6\nvalue = 0.114"] ;
840 -> 841 ;
842 [label="mse = 0.0\nsamples = 1\nvalue = 0.174"] ;
841 -> 842 ;
843 [label="X[4] <= 0.884\nmse = 0.002\nsamples = 5\nvalue = 0.102"] ;
841 -> 843 ;
844 [label="mse = 0.0\nsamples = 1\nvalue = 0.056"] ;
843 -> 844 ;
845 [label="X[5] <= 0.257\nmse = 0.002\nsamples = 4\nvalue = 0.113"] ;
843 -> 845 ;
846 [label="mse = 0.0\nsamples = 1\nvalue = 0.056"] ;
845 -> 846 ;
847 [label="X[3] <= 0.332\nmse = 0.001\nsamples = 3\nvalue = 0.132"] ;
845 -> 847 ;
848 [label="mse = 0.0\nsamples = 1\nvalue = 0.174"] ;
847 -> 848 ;
849 [label="X[6] <= 0.411\nmse = 0.0\nsamples = 2\nvalue = 0.112"] ;
847 -> 849 ;
850 [label="mse = 0.0\nsamples = 1\nvalue = 0.115"] ;
849 -> 850 ;
851 [label="mse = 0.0\nsamples = 1\nvalue = 0.108"] ;
849 -> 851 ;
852 [label="X[5] <= 0.282\nmse = 0.001\nsamples = 3\nvalue = 0.21"] ;
840 -> 852 ;
853 [label="mse = 0.0\nsamples = 1\nvalue = 0.164"] ;
852 -> 853 ;
854 [label="mse = -0.0\nsamples = 2\nvalue = 0.233"] ;
852 -> 854 ;
855 [label="X[3] <= 0.399\nmse = 0.0\nsamples = 6\nvalue = 0.058"] ;
829 -> 855 ;
856 [label="mse = 0.0\nsamples = 4\nvalue = 0.05"] ;
855 -> 856 ;
857 [label="X[2] <= 0.381\nmse = 0.001\nsamples = 2\nvalue = 0.076"] ;
855 -> 857 ;
858 [label="mse = 0.0\nsamples = 1\nvalue = 0.102"] ;
857 -> 858 ;
859 [label="mse = 0.0\nsamples = 1\nvalue = 0.05"] ;
857 -> 859 ;
860 [label="X[6] <= 0.408\nmse = 0.002\nsamples = 32\nvalue = 0.067"] ;
828 -> 860 ;
861 [label="X[1] <= 0.495\nmse = 0.002\nsamples = 13\nvalue = 0.079"] ;
860 -> 861 ;
862 [label="X[5] <= 0.197\nmse = 0.0\nsamples = 10\nvalue = 0.062"] ;
861 -> 862 ;
863 [label="X[2] <= 0.427\nmse = 0.001\nsamples = 5\nvalue = 0.068"] ;
862 -> 863 ;
864 [label="mse = -0.0\nsamples = 3\nvalue = 0.056"] ;
863 -> 864 ;
865 [label="X[0] <= 0.497\nmse = 0.001\nsamples = 2\nvalue = 0.085"] ;
863 -> 865 ;
866 [label="mse = 0.0\nsamples = 1\nvalue = 0.056"] ;
865 -> 866 ;
867 [label="mse = 0.0\nsamples = 1\nvalue = 0.115"] ;
865 -> 867 ;
868 [label="mse = 0.0\nsamples = 5\nvalue = 0.056"] ;
862 -> 868 ;
869 [label="X[4] <= 0.854\nmse = 0.005\nsamples = 3\nvalue = 0.135"] ;
861 -> 869 ;
870 [label="mse = 0.0\nsamples = 1\nvalue = 0.233"] ;
869 -> 870 ;
871 [label="X[0] <= 0.634\nmse = 0.001\nsamples = 2\nvalue = 0.085"] ;
869 -> 871 ;
872 [label="mse = 0.0\nsamples = 1\nvalue = 0.115"] ;
871 -> 872 ;
873 [label="mse = 0.0\nsamples = 1\nvalue = 0.056"] ;
871 -> 873 ;
874 [label="X[6] <= 0.414\nmse = 0.001\nsamples = 19\nvalue = 0.06"] ;
860 -> 874 ;
875 [label="X[1] <= 0.457\nmse = 0.002\nsamples = 7\nvalue = 0.077"] ;
874 -> 875 ;
876 [label="mse = 0.0\nsamples = 3\nvalue = 0.053"] ;
875 -> 876 ;
877 [label="X[1] <= 0.5\nmse = 0.002\nsamples = 4\nvalue = 0.094"] ;
875 -> 877 ;
878 [label="X[0] <= 0.606\nmse = 0.002\nsamples = 3\nvalue = 0.108"] ;
877 -> 878 ;
879 [label="X[3] <= 0.251\nmse = 0.001\nsamples = 2\nvalue = 0.08"] ;
878 -> 879 ;
880 [label="mse = 0.0\nsamples = 1\nvalue = 0.108"] ;
879 -> 880 ;
881 [label="mse = 0.0\nsamples = 1\nvalue = 0.053"] ;
879 -> 881 ;
882 [label="mse = 0.0\nsamples = 1\nvalue = 0.164"] ;
878 -> 882 ;
883 [label="mse = -0.0\nsamples = 1\nvalue = 0.053"] ;
877 -> 883 ;
884 [label="mse = 0.0\nsamples = 12\nvalue = 0.05"] ;
874 -> 884 ;
885 [label="X[5] <= 0.126\nmse = 0.002\nsamples = 25\nvalue = 0.065"] ;
827 -> 885 ;
886 [label="X[2] <= 0.444\nmse = 0.006\nsamples = 4\nvalue = 0.122"] ;
885 -> 886 ;
887 [label="X[3] <= 0.206\nmse = 0.001\nsamples = 3\nvalue = 0.08"] ;
886 -> 887 ;
888 [label="X[5] <= 0.029\nmse = 0.001\nsamples = 2\nvalue = 0.072"] ;
887 -> 888 ;
889 [label="mse = 0.0\nsamples = 1\nvalue = 0.047"] ;
888 -> 889 ;
890 [label="mse = -0.0\nsamples = 1\nvalue = 0.097"] ;
888 -> 890 ;
891 [label="mse = 0.0\nsamples = 1\nvalue = 0.097"] ;
887 -> 891 ;
892 [label="mse = -0.0\nsamples = 1\nvalue = 0.248"] ;
886 -> 892 ;
893 [label="X[0] <= 0.55\nmse = 0.0\nsamples = 21\nvalue = 0.054"] ;
885 -> 893 ;
894 [label="X[3] <= 0.443\nmse = 0.0\nsamples = 17\nvalue = 0.056"] ;
893 -> 894 ;
895 [label="X[0] <= 0.382\nmse = 0.0\nsamples = 14\nvalue = 0.058"] ;
894 -> 895 ;
896 [label="mse = 0.0\nsamples = 1\nvalue = 0.097"] ;
895 -> 896 ;
897 [label="X[3] <= 0.329\nmse = 0.0\nsamples = 13\nvalue = 0.055"] ;
895 -> 897 ;
898 [label="X[1] <= 0.48\nmse = 0.0\nsamples = 11\nvalue = 0.052"] ;
897 -> 898 ;
899 [label="mse = -0.0\nsamples = 7\nvalue = 0.047"] ;
898 -> 899 ;
900 [label="X[4] <= 0.903\nmse = 0.0\nsamples = 4\nvalue = 0.06"] ;
898 -> 900 ;
901 [label="X[1] <= 0.513\nmse = 0.001\nsamples = 2\nvalue = 0.072"] ;
900 -> 901 ;
902 [label="mse = 0.0\nsamples = 1\nvalue = 0.047"] ;
901 -> 902 ;
903 [label="mse = -0.0\nsamples = 1\nvalue = 0.097"] ;
901 -> 903 ;
904 [label="mse = -0.0\nsamples = 2\nvalue = 0.047"] ;
900 -> 904 ;
905 [label="X[5] <= 0.429\nmse = 0.001\nsamples = 2\nvalue = 0.072"] ;
897 -> 905 ;
906 [label="mse = 0.0\nsamples = 1\nvalue = 0.047"] ;
905 -> 906 ;
907 [label="mse = -0.0\nsamples = 1\nvalue = 0.097"] ;
905 -> 907 ;
908 [label="mse = 0.0\nsamples = 3\nvalue = 0.047"] ;
894 -> 908 ;
909 [label="mse = -0.0\nsamples = 4\nvalue = 0.047"] ;
893 -> 909 ;
910 [label="X[3] <= 0.38\nmse = 0.004\nsamples = 8\nvalue = 0.139"] ;
740 -> 910 ;
911 [label="X[5] <= 0.219\nmse = 0.004\nsamples = 7\nvalue = 0.151"] ;
910 -> 911 ;
912 [label="X[3] <= 0.213\nmse = 0.004\nsamples = 5\nvalue = 0.132"] ;
911 -> 912 ;
913 [label="X[4] <= 0.938\nmse = 0.002\nsamples = 4\nvalue = 0.11"] ;
912 -> 913 ;
914 [label="X[3] <= 0.199\nmse = 0.001\nsamples = 3\nvalue = 0.089"] ;
913 -> 914 ;
915 [label="mse = 0.0\nsamples = 1\nvalue = 0.14"] ;
914 -> 915 ;
916 [label="X[5] <= 0.134\nmse = 0.0\nsamples = 2\nvalue = 0.063"] ;
914 -> 916 ;
917 [label="mse = 0.0\nsamples = 1\nvalue = 0.053"] ;
916 -> 917 ;
918 [label="mse = -0.0\nsamples = 1\nvalue = 0.074"] ;
916 -> 918 ;
919 [label="mse = -0.0\nsamples = 1\nvalue = 0.174"] ;
913 -> 919 ;
920 [label="mse = -0.0\nsamples = 1\nvalue = 0.22"] ;
912 -> 920 ;
921 [label="mse = 0.0\nsamples = 2\nvalue = 0.198"] ;
911 -> 921 ;
922 [label="mse = 0.0\nsamples = 1\nvalue = 0.053"] ;
910 -> 922 ;
923 [label="X[2] <= 0.633\nmse = 0.01\nsamples = 51\nvalue = 0.128"] ;
739 -> 923 ;
924 [label="X[6] <= 0.377\nmse = 0.009\nsamples = 50\nvalue = 0.124"] ;
923 -> 924 ;
925 [label="X[4] <= 0.889\nmse = 0.023\nsamples = 12\nvalue = 0.162"] ;
924 -> 925 ;
926 [label="X[3] <= 0.557\nmse = 0.001\nsamples = 5\nvalue = 0.114"] ;
925 -> 926 ;
927 [label="X[2] <= 0.45\nmse = 0.0\nsamples = 2\nvalue = 0.146"] ;
926 -> 927 ;
928 [label="mse = 0.0\nsamples = 1\nvalue = 0.151"] ;
927 -> 928 ;
929 [label="mse = -0.0\nsamples = 1\nvalue = 0.14"] ;
927 -> 929 ;
930 [label="X[0] <= 0.635\nmse = 0.001\nsamples = 3\nvalue = 0.092"] ;
926 -> 930 ;
931 [label="mse = -0.0\nsamples = 2\nvalue = 0.069"] ;
930 -> 931 ;
932 [label="mse = 0.0\nsamples = 1\nvalue = 0.14"] ;
930 -> 932 ;
933 [label="X[1] <= 0.375\nmse = 0.036\nsamples = 7\nvalue = 0.197"] ;
925 -> 933 ;
934 [label="X[5] <= 0.723\nmse = 0.042\nsamples = 4\nvalue = 0.29"] ;
933 -> 934 ;
935 [label="X[6] <= 0.371\nmse = 0.043\nsamples = 2\nvalue = 0.435"] ;
934 -> 935 ;
936 [label="mse = 0.0\nsamples = 1\nvalue = 0.228"] ;
935 -> 936 ;
937 [label="mse = 0.0\nsamples = 1\nvalue = 0.642"] ;
935 -> 937 ;
938 [label="X[2] <= 0.353\nmse = 0.0\nsamples = 2\nvalue = 0.146"] ;
934 -> 938 ;
939 [label="mse = 0.0\nsamples = 1\nvalue = 0.14"] ;
938 -> 939 ;
940 [label="mse = -0.0\nsamples = 1\nvalue = 0.151"] ;
938 -> 940 ;
941 [label="X[2] <= 0.392\nmse = 0.0\nsamples = 3\nvalue = 0.072"] ;
933 -> 941 ;
942 [label="mse = 0.0\nsamples = 2\nvalue = 0.074"] ;
941 -> 942 ;
943 [label="mse = -0.0\nsamples = 1\nvalue = 0.069"] ;
941 -> 943 ;
944 [label="X[2] <= 0.329\nmse = 0.004\nsamples = 38\nvalue = 0.112"] ;
924 -> 944 ;
945 [label="X[0] <= 0.29\nmse = 0.001\nsamples = 3\nvalue = 0.076"] ;
944 -> 945 ;
946 [label="mse = 0.0\nsamples = 1\nvalue = 0.108"] ;
945 -> 946 ;
947 [label="X[3] <= 0.507\nmse = 0.0\nsamples = 2\nvalue = 0.06"] ;
945 -> 947 ;
948 [label="mse = 0.0\nsamples = 1\nvalue = 0.056"] ;
947 -> 948 ;
949 [label="mse = 0.0\nsamples = 1\nvalue = 0.064"] ;
947 -> 949 ;
950 [label="X[2] <= 0.378\nmse = 0.004\nsamples = 35\nvalue = 0.115"] ;
944 -> 950 ;
951 [label="mse = 0.0\nsamples = 1\nvalue = 0.31"] ;
950 -> 951 ;
952 [label="X[0] <= 0.611\nmse = 0.003\nsamples = 34\nvalue = 0.109"] ;
950 -> 952 ;
953 [label="X[4] <= 0.867\nmse = 0.003\nsamples = 29\nvalue = 0.101"] ;
952 -> 953 ;
954 [label="X[6] <= 0.416\nmse = 0.001\nsamples = 8\nvalue = 0.081"] ;
953 -> 954 ;
955 [label="X[5] <= 0.56\nmse = 0.001\nsamples = 7\nvalue = 0.072"] ;
954 -> 955 ;
956 [label="X[6] <= 0.404\nmse = 0.0\nsamples = 4\nvalue = 0.055"] ;
955 -> 956 ;
957 [label="mse = 0.0\nsamples = 3\nvalue = 0.056"] ;
956 -> 957 ;
958 [label="mse = -0.0\nsamples = 1\nvalue = 0.053"] ;
956 -> 958 ;
959 [label="X[6] <= 0.397\nmse = 0.001\nsamples = 3\nvalue = 0.094"] ;
955 -> 959 ;
960 [label="mse = 0.0\nsamples = 1\nvalue = 0.06"] ;
959 -> 960 ;
961 [label="X[5] <= 0.585\nmse = 0.0\nsamples = 2\nvalue = 0.112"] ;
959 -> 961 ;
962 [label="mse = 0.0\nsamples = 1\nvalue = 0.115"] ;
961 -> 962 ;
963 [label="mse = 0.0\nsamples = 1\nvalue = 0.108"] ;
961 -> 963 ;
964 [label="mse = 0.0\nsamples = 1\nvalue = 0.147"] ;
954 -> 964 ;
965 [label="X[1] <= 0.417\nmse = 0.003\nsamples = 21\nvalue = 0.109"] ;
953 -> 965 ;
966 [label="X[3] <= 0.472\nmse = 0.002\nsamples = 13\nvalue = 0.102"] ;
965 -> 966 ;
967 [label="mse = 0.0\nsamples = 1\nvalue = 0.174"] ;
966 -> 967 ;
968 [label="X[5] <= 0.749\nmse = 0.002\nsamples = 12\nvalue = 0.096"] ;
966 -> 968 ;
969 [label="X[1] <= 0.252\nmse = 0.002\nsamples = 11\nvalue = 0.091"] ;
968 -> 969 ;
970 [label="mse = 0.0\nsamples = 1\nvalue = 0.053"] ;
969 -> 970 ;
971 [label="X[3] <= 0.581\nmse = 0.002\nsamples = 10\nvalue = 0.095"] ;
969 -> 971 ;
972 [label="X[0] <= 0.499\nmse = 0.001\nsamples = 7\nvalue = 0.084"] ;
971 -> 972 ;
973 [label="X[4] <= 0.95\nmse = 0.0\nsamples = 2\nvalue = 0.062"] ;
972 -> 973 ;
974 [label="mse = 0.0\nsamples = 1\nvalue = 0.06"] ;
973 -> 974 ;
975 [label="mse = 0.0\nsamples = 1\nvalue = 0.064"] ;
973 -> 975 ;
976 [label="X[0] <= 0.548\nmse = 0.002\nsamples = 5\nvalue = 0.093"] ;
972 -> 976 ;
977 [label="X[1] <= 0.4\nmse = 0.001\nsamples = 2\nvalue = 0.129"] ;
976 -> 977 ;
978 [label="mse = 0.0\nsamples = 1\nvalue = 0.155"] ;
977 -> 978 ;
979 [label="mse = -0.0\nsamples = 1\nvalue = 0.102"] ;
977 -> 979 ;
980 [label="X[2] <= 0.413\nmse = 0.001\nsamples = 3\nvalue = 0.068"] ;
976 -> 980 ;
981 [label="mse = 0.0\nsamples = 1\nvalue = 0.108"] ;
980 -> 981 ;
982 [label="X[4] <= 0.929\nmse = 0.0\nsamples = 2\nvalue = 0.048"] ;
980 -> 982 ;
983 [label="mse = 0.0\nsamples = 1\nvalue = 0.05"] ;
982 -> 983 ;
984 [label="mse = 0.0\nsamples = 1\nvalue = 0.047"] ;
982 -> 984 ;
985 [label="X[5] <= 0.627\nmse = 0.003\nsamples = 3\nvalue = 0.12"] ;
971 -> 985 ;
986 [label="mse = 0.0\nsamples = 1\nvalue = 0.053"] ;
985 -> 986 ;
987 [label="X[3] <= 0.613\nmse = 0.001\nsamples = 2\nvalue = 0.154"] ;
985 -> 987 ;
988 [label="mse = 0.0\nsamples = 1\nvalue = 0.185"] ;
987 -> 988 ;
989 [label="mse = -0.0\nsamples = 1\nvalue = 0.122"] ;
987 -> 989 ;
990 [label="mse = 0.0\nsamples = 1\nvalue = 0.155"] ;
968 -> 990 ;
991 [label="X[6] <= 0.424\nmse = 0.004\nsamples = 8\nvalue = 0.119"] ;
965 -> 991 ;
992 [label="X[0] <= 0.546\nmse = 0.002\nsamples = 7\nvalue = 0.101"] ;
991 -> 992 ;
993 [label="X[4] <= 0.991\nmse = 0.001\nsamples = 3\nvalue = 0.074"] ;
992 -> 993 ;
994 [label="X[3] <= 0.594\nmse = 0.0\nsamples = 2\nvalue = 0.054"] ;
993 -> 994 ;
995 [label="mse = 0.0\nsamples = 1\nvalue = 0.053"] ;
994 -> 995 ;
996 [label="mse = 0.0\nsamples = 1\nvalue = 0.056"] ;
994 -> 996 ;
997 [label="mse = 0.0\nsamples = 1\nvalue = 0.115"] ;
993 -> 997 ;
998 [label="X[1] <= 0.438\nmse = 0.002\nsamples = 4\nvalue = 0.121"] ;
992 -> 998 ;
999 [label="mse = 0.0\nsamples = 1\nvalue = 0.185"] ;
998 -> 999 ;
1000 [label="X[0] <= 0.57\nmse = 0.001\nsamples = 3\nvalue = 0.1"] ;
998 -> 1000 ;
1001 [label="mse = 0.0\nsamples = 1\nvalue = 0.06"] ;
1000 -> 1001 ;
1002 [label="X[3] <= 0.567\nmse = 0.0\nsamples = 2\nvalue = 0.12"] ;
1000 -> 1002 ;
1003 [label="mse = 0.0\nsamples = 1\nvalue = 0.108"] ;
1002 -> 1003 ;
1004 [label="mse = 0.0\nsamples = 1\nvalue = 0.131"] ;
1002 -> 1004 ;
1005 [label="mse = -0.0\nsamples = 1\nvalue = 0.248"] ;
991 -> 1005 ;
1006 [label="X[2] <= 0.451\nmse = 0.004\nsamples = 5\nvalue = 0.154"] ;
952 -> 1006 ;
1007 [label="X[2] <= 0.427\nmse = 0.002\nsamples = 4\nvalue = 0.179"] ;
1006 -> 1007 ;
1008 [label="X[2] <= 0.408\nmse = 0.001\nsamples = 2\nvalue = 0.223"] ;
1007 -> 1008 ;
1009 [label="mse = 0.0\nsamples = 1\nvalue = 0.198"] ;
1008 -> 1009 ;
1010 [label="mse = 0.0\nsamples = 1\nvalue = 0.248"] ;
1008 -> 1010 ;
1011 [label="X[5] <= 0.588\nmse = 0.0\nsamples = 2\nvalue = 0.135"] ;
1007 -> 1011 ;
1012 [label="mse = 0.0\nsamples = 1\nvalue = 0.122"] ;
1011 -> 1012 ;
1013 [label="mse = -0.0\nsamples = 1\nvalue = 0.147"] ;
1011 -> 1013 ;
1014 [label="mse = -0.0\nsamples = 1\nvalue = 0.056"] ;
1006 -> 1014 ;
1015 [label="mse = -0.0\nsamples = 1\nvalue = 0.331"] ;
923 -> 1015 ;
1016 [label="X[6] <= 0.513\nmse = 0.004\nsamples = 795\nvalue = 0.071"] ;
738 -> 1016 ;
1017 [label="X[5] <= 0.479\nmse = 0.004\nsamples = 304\nvalue = 0.08"] ;
1016 -> 1017 ;
1018 [label="X[0] <= 0.617\nmse = 0.002\nsamples = 212\nvalue = 0.068"] ;
1017 -> 1018 ;
1019 [label="X[6] <= 0.453\nmse = 0.003\nsamples = 154\nvalue = 0.074"] ;
1018 -> 1019 ;
1020 [label="X[6] <= 0.446\nmse = 0.004\nsamples = 56\nvalue = 0.091"] ;
1019 -> 1020 ;
1021 [label="X[3] <= 0.268\nmse = 0.005\nsamples = 29\nvalue = 0.106"] ;
1020 -> 1021 ;
1022 [label="X[0] <= 0.553\nmse = 0.003\nsamples = 17\nvalue = 0.09"] ;
1021 -> 1022 ;
1023 [label="X[6] <= 0.436\nmse = 0.001\nsamples = 13\nvalue = 0.072"] ;
1022 -> 1023 ;
1024 [label="X[0] <= 0.422\nmse = 0.002\nsamples = 4\nvalue = 0.104"] ;
1023 -> 1024 ;
1025 [label="mse = 0.0\nsamples = 2\nvalue = 0.14"] ;
1024 -> 1025 ;
1026 [label="X[3] <= 0.211\nmse = 0.001\nsamples = 2\nvalue = 0.069"] ;
1024 -> 1026 ;
1027 [label="mse = 0.0\nsamples = 1\nvalue = 0.045"] ;
1026 -> 1027 ;
1028 [label="mse = -0.0\nsamples = 1\nvalue = 0.092"] ;
1026 -> 1028 ;
1029 [label="X[0] <= 0.416\nmse = 0.0\nsamples = 9\nvalue = 0.058"] ;
1023 -> 1029 ;
1030 [label="X[1] <= 0.536\nmse = 0.0\nsamples = 3\nvalue = 0.073"] ;
1029 -> 1030 ;
1031 [label="mse = 0.0\nsamples = 2\nvalue = 0.088"] ;
1030 -> 1031 ;
1032 [label="mse = -0.0\nsamples = 1\nvalue = 0.042"] ;
1030 -> 1032 ;
1033 [label="X[5] <= 0.176\nmse = 0.0\nsamples = 6\nvalue = 0.05"] ;
1029 -> 1033 ;
1034 [label="X[0] <= 0.536\nmse = 0.0\nsamples = 3\nvalue = 0.058"] ;
1033 -> 1034 ;
1035 [label="X[1] <= 0.37\nmse = 0.001\nsamples = 2\nvalue = 0.065"] ;
1034 -> 1035 ;
1036 [label="mse = 0.0\nsamples = 1\nvalue = 0.042"] ;
1035 -> 1036 ;
1037 [label="mse = 0.0\nsamples = 1\nvalue = 0.088"] ;
1035 -> 1037 ;
1038 [label="mse = -0.0\nsamples = 1\nvalue = 0.042"] ;
1034 -> 1038 ;
1039 [label="mse = -0.0\nsamples = 3\nvalue = 0.042"] ;
1033 -> 1039 ;
1040 [label="X[1] <= 0.474\nmse = 0.005\nsamples = 4\nvalue = 0.149"] ;
1022 -> 1040 ;
1041 [label="X[5] <= 0.239\nmse = 0.002\nsamples = 3\nvalue = 0.185"] ;
1040 -> 1041 ;
1042 [label="X[6] <= 0.44\nmse = 0.001\nsamples = 2\nvalue = 0.208"] ;
1041 -> 1042 ;
1043 [label="mse = 0.0\nsamples = 1\nvalue = 0.236"] ;
1042 -> 1043 ;
1044 [label="mse = 0.0\nsamples = 1\nvalue = 0.179"] ;
1042 -> 1044 ;
1045 [label="mse = -0.0\nsamples = 1\nvalue = 0.14"] ;
1041 -> 1045 ;
1046 [label="mse = 0.0\nsamples = 1\nvalue = 0.042"] ;
1040 -> 1046 ;
1047 [label="X[2] <= 0.446\nmse = 0.006\nsamples = 12\nvalue = 0.129"] ;
1021 -> 1047 ;
1048 [label="X[1] <= 0.449\nmse = 0.006\nsamples = 9\nvalue = 0.152"] ;
1047 -> 1048 ;
1049 [label="X[6] <= 0.44\nmse = 0.004\nsamples = 7\nvalue = 0.124"] ;
1048 -> 1049 ;
1050 [label="X[4] <= 0.715\nmse = 0.005\nsamples = 5\nvalue = 0.112"] ;
1049 -> 1050 ;
1051 [label="mse = 0.0\nsamples = 1\nvalue = 0.236"] ;
1050 -> 1051 ;
1052 [label="X[1] <= 0.426\nmse = 0.002\nsamples = 4\nvalue = 0.08"] ;
1050 -> 1052 ;
1053 [label="mse = 0.0\nsamples = 2\nvalue = 0.045"] ;
1052 -> 1053 ;
1054 [label="X[3] <= 0.446\nmse = 0.001\nsamples = 2\nvalue = 0.116"] ;
1052 -> 1054 ;
1055 [label="mse = 0.0\nsamples = 1\nvalue = 0.092"] ;
1054 -> 1055 ;
1056 [label="mse = 0.0\nsamples = 1\nvalue = 0.14"] ;
1054 -> 1056 ;
1057 [label="X[5] <= 0.381\nmse = 0.001\nsamples = 2\nvalue = 0.156"] ;
1049 -> 1057 ;
1058 [label="mse = 0.0\nsamples = 1\nvalue = 0.179"] ;
1057 -> 1058 ;
1059 [label="mse = 0.0\nsamples = 1\nvalue = 0.134"] ;
1057 -> 1059 ;
1060 [label="X[0] <= 0.484\nmse = 0.001\nsamples = 2\nvalue = 0.248"] ;
1048 -> 1060 ;
1061 [label="mse = 0.0\nsamples = 1\nvalue = 0.225"] ;
1060 -> 1061 ;
1062 [label="mse = 0.0\nsamples = 1\nvalue = 0.27"] ;
1060 -> 1062 ;
1063 [label="X[1] <= 0.485\nmse = 0.001\nsamples = 3\nvalue = 0.06"] ;
1047 -> 1063 ;
1064 [label="X[3] <= 0.432\nmse = 0.0\nsamples = 2\nvalue = 0.044"] ;
1063 -> 1064 ;
1065 [label="mse = 0.0\nsamples = 1\nvalue = 0.045"] ;
1064 -> 1065 ;
1066 [label="mse = 0.0\nsamples = 1\nvalue = 0.042"] ;
1064 -> 1066 ;
1067 [label="mse = -0.0\nsamples = 1\nvalue = 0.092"] ;
1063 -> 1067 ;
1068 [label="X[2] <= 0.427\nmse = 0.003\nsamples = 27\nvalue = 0.076"] ;
1020 -> 1068 ;
1069 [label="X[3] <= 0.228\nmse = 0.007\nsamples = 2\nvalue = 0.164"] ;
1068 -> 1069 ;
1070 [label="mse = 0.0\nsamples = 1\nvalue = 0.248"] ;
1069 -> 1070 ;
1071 [label="mse = -0.0\nsamples = 1\nvalue = 0.08"] ;
1069 -> 1071 ;
1072 [label="X[1] <= 0.344\nmse = 0.002\nsamples = 25\nvalue = 0.069"] ;
1068 -> 1072 ;
1073 [label="mse = 0.0\nsamples = 1\nvalue = 0.259"] ;
1072 -> 1073 ;
1074 [label="X[0] <= 0.557\nmse = 0.001\nsamples = 24\nvalue = 0.061"] ;
1072 -> 1074 ;
1075 [label="X[3] <= 0.373\nmse = 0.001\nsamples = 17\nvalue = 0.064"] ;
1074 -> 1075 ;
1076 [label="X[6] <= 0.451\nmse = 0.001\nsamples = 12\nvalue = 0.071"] ;
1075 -> 1076 ;
1077 [label="X[2] <= 0.452\nmse = 0.002\nsamples = 3\nvalue = 0.099"] ;
1076 -> 1077 ;
1078 [label="mse = 0.0\nsamples = 2\nvalue = 0.128"] ;
1077 -> 1078 ;
1079 [label="mse = 0.0\nsamples = 1\nvalue = 0.041"] ;
1077 -> 1079 ;
1080 [label="X[5] <= 0.245\nmse = 0.001\nsamples = 9\nvalue = 0.062"] ;
1076 -> 1080 ;
1081 [label="X[3] <= 0.203\nmse = 0.0\nsamples = 4\nvalue = 0.049"] ;
1080 -> 1081 ;
1082 [label="X[2] <= 0.434\nmse = 0.0\nsamples = 2\nvalue = 0.06"] ;
1081 -> 1082 ;
1083 [label="mse = 0.0\nsamples = 1\nvalue = 0.08"] ;
1082 -> 1083 ;
1084 [label="mse = 0.0\nsamples = 1\nvalue = 0.039"] ;
1082 -> 1084 ;
1085 [label="mse = 0.0\nsamples = 2\nvalue = 0.039"] ;
1081 -> 1085 ;
1086 [label="X[5] <= 0.383\nmse = 0.001\nsamples = 5\nvalue = 0.072"] ;
1080 -> 1086 ;
1087 [label="X[0] <= 0.505\nmse = 0.0\nsamples = 4\nvalue = 0.06"] ;
1086 -> 1087 ;
1088 [label="X[4] <= 0.741\nmse = 0.0\nsamples = 3\nvalue = 0.053"] ;
1087 -> 1088 ;
1089 [label="mse = 0.0\nsamples = 1\nvalue = 0.08"] ;
1088 -> 1089 ;
1090 [label="mse = 0.0\nsamples = 2\nvalue = 0.039"] ;
1088 -> 1090 ;
1091 [label="mse = 0.0\nsamples = 1\nvalue = 0.08"] ;
1087 -> 1091 ;
1092 [label="mse = -0.0\nsamples = 1\nvalue = 0.122"] ;
1086 -> 1092 ;
1093 [label="X[0] <= 0.347\nmse = 0.0\nsamples = 5\nvalue = 0.048"] ;
1075 -> 1093 ;
1094 [label="mse = 0.0\nsamples = 1\nvalue = 0.08"] ;
1093 -> 1094 ;
1095 [label="X[6] <= 0.448\nmse = 0.0\nsamples = 4\nvalue = 0.04"] ;
1093 -> 1095 ;
1096 [label="mse = 0.0\nsamples = 2\nvalue = 0.041"] ;
1095 -> 1096 ;
1097 [label="mse = -0.0\nsamples = 2\nvalue = 0.039"] ;
1095 -> 1097 ;
1098 [label="X[0] <= 0.564\nmse = 0.0\nsamples = 7\nvalue = 0.052"] ;
1074 -> 1098 ;
1099 [label="mse = 0.0\nsamples = 1\nvalue = 0.084"] ;
1098 -> 1099 ;
1100 [label="X[0] <= 0.611\nmse = 0.0\nsamples = 6\nvalue = 0.047"] ;
1098 -> 1100 ;
1101 [label="X[6] <= 0.45\nmse = 0.0\nsamples = 5\nvalue = 0.04"] ;
1100 -> 1101 ;
1102 [label="mse = -0.0\nsamples = 3\nvalue = 0.041"] ;
1101 -> 1102 ;
1103 [label="mse = -0.0\nsamples = 2\nvalue = 0.039"] ;
1101 -> 1103 ;
1104 [label="mse = 0.0\nsamples = 1\nvalue = 0.08"] ;
1100 -> 1104 ;
1105 [label="X[0] <= 0.319\nmse = 0.002\nsamples = 98\nvalue = 0.063"] ;
1019 -> 1105 ;
1106 [label="mse = 0.0\nsamples = 1\nvalue = 0.151"] ;
1105 -> 1106 ;
1107 [label="X[4] <= 0.963\nmse = 0.002\nsamples = 97\nvalue = 0.062"] ;
1105 -> 1107 ;
1108 [label="X[3] <= 0.37\nmse = 0.001\nsamples = 93\nvalue = 0.061"] ;
1107 -> 1108 ;
1109 [label="X[3] <= 0.327\nmse = 0.001\nsamples = 79\nvalue = 0.059"] ;
1108 -> 1109 ;
1110 [label="X[1] <= 0.451\nmse = 0.001\nsamples = 77\nvalue = 0.059"] ;
1109 -> 1110 ;
1111 [label="X[5] <= 0.207\nmse = 0.001\nsamples = 35\nvalue = 0.05"] ;
1110 -> 1111 ;
1112 [label="X[0] <= 0.494\nmse = 0.001\nsamples = 12\nvalue = 0.041"] ;
1111 -> 1112 ;
1113 [label="X[2] <= 0.498\nmse = 0.0\nsamples = 4\nvalue = 0.032"] ;
1112 -> 1113 ;
1114 [label="X[2] <= 0.445\nmse = 0.0\nsamples = 3\nvalue = 0.035"] ;
1113 -> 1114 ;
1115 [label="X[5] <= 0.119\nmse = 0.0\nsamples = 2\nvalue = 0.033"] ;
1114 -> 1115 ;
1116 [label="mse = 0.0\nsamples = 1\nvalue = 0.034"] ;
1115 -> 1116 ;
1117 [label="mse = 0.0\nsamples = 1\nvalue = 0.033"] ;
1115 -> 1117 ;
1118 [label="mse = -0.0\nsamples = 1\nvalue = 0.037"] ;
1114 -> 1118 ;
1119 [label="mse = 0.0\nsamples = 1\nvalue = 0.025"] ;
1113 -> 1119 ;
1120 [label="X[5] <= 0.175\nmse = 0.001\nsamples = 8\nvalue = 0.046"] ;
1112 -> 1120 ;
1121 [label="X[1] <= 0.406\nmse = 0.001\nsamples = 5\nvalue = 0.051"] ;
1120 -> 1121 ;
1122 [label="X[1] <= 0.352\nmse = 0.002\nsamples = 2\nvalue = 0.079"] ;
1121 -> 1122 ;
1123 [label="mse = 0.0\nsamples = 1\nvalue = 0.031"] ;
1122 -> 1123 ;
1124 [label="mse = 0.0\nsamples = 1\nvalue = 0.126"] ;
1122 -> 1124 ;
1125 [label="X[4] <= 0.857\nmse = 0.0\nsamples = 3\nvalue = 0.033"] ;
1121 -> 1125 ;
1126 [label="mse = 0.0\nsamples = 1\nvalue = 0.035"] ;
1125 -> 1126 ;
1127 [label="X[3] <= 0.209\nmse = 0.0\nsamples = 2\nvalue = 0.032"] ;
1125 -> 1127 ;
1128 [label="mse = 0.0\nsamples = 1\nvalue = 0.033"] ;
1127 -> 1128 ;
1129 [label="mse = 0.0\nsamples = 1\nvalue = 0.03"] ;
1127 -> 1129 ;
1130 [label="X[2] <= 0.519\nmse = 0.0\nsamples = 3\nvalue = 0.037"] ;
1120 -> 1130 ;
1131 [label="X[6] <= 0.494\nmse = 0.0\nsamples = 2\nvalue = 0.028"] ;
1130 -> 1131 ;
1132 [label="mse = 0.0\nsamples = 1\nvalue = 0.029"] ;
1131 -> 1132 ;
1133 [label="mse = 0.0\nsamples = 1\nvalue = 0.026"] ;
1131 -> 1133 ;
1134 [label="mse = 0.0\nsamples = 1\nvalue = 0.054"] ;
1130 -> 1134 ;
1135 [label="X[4] <= 0.954\nmse = 0.001\nsamples = 23\nvalue = 0.055"] ;
1111 -> 1135 ;
1136 [label="X[6] <= 0.508\nmse = 0.001\nsamples = 21\nvalue = 0.052"] ;
1135 -> 1136 ;
1137 [label="X[5] <= 0.249\nmse = 0.001\nsamples = 20\nvalue = 0.049"] ;
1136 -> 1137 ;
1138 [label="X[0] <= 0.489\nmse = 0.0\nsamples = 2\nvalue = 0.03"] ;
1137 -> 1138 ;
1139 [label="mse = 0.0\nsamples = 1\nvalue = 0.028"] ;
1138 -> 1139 ;
1140 [label="mse = 0.0\nsamples = 1\nvalue = 0.031"] ;
1138 -> 1140 ;
1141 [label="X[5] <= 0.388\nmse = 0.001\nsamples = 18\nvalue = 0.052"] ;
1137 -> 1141 ;
1142 [label="X[3] <= 0.213\nmse = 0.0\nsamples = 11\nvalue = 0.043"] ;
1141 -> 1142 ;
1143 [label="X[3] <= 0.205\nmse = 0.0\nsamples = 9\nvalue = 0.037"] ;
1142 -> 1143 ;
1144 [label="mse = 0.0\nsamples = 3\nvalue = 0.046"] ;
1143 -> 1144 ;
1145 [label="mse = 0.0\nsamples = 6\nvalue = 0.033"] ;
1143 -> 1145 ;
1146 [label="X[4] <= 0.888\nmse = 0.001\nsamples = 2\nvalue = 0.068"] ;
1142 -> 1146 ;
1147 [label="mse = 0.0\nsamples = 1\nvalue = 0.035"] ;
1146 -> 1147 ;
1148 [label="mse = -0.0\nsamples = 1\nvalue = 0.101"] ;
1146 -> 1148 ;
1149 [label="X[1] <= 0.396\nmse = 0.001\nsamples = 7\nvalue = 0.066"] ;
1141 -> 1149 ;
1150 [label="mse = 0.0\nsamples = 1\nvalue = 0.031"] ;
1149 -> 1150 ;
1151 [label="X[5] <= 0.421\nmse = 0.001\nsamples = 6\nvalue = 0.071"] ;
1149 -> 1151 ;
1152 [label="mse = 0.0\nsamples = 1\nvalue = 0.135"] ;
1151 -> 1152 ;
1153 [label="mse = 0.001\nsamples = 5\nvalue = 0.059"] ;
1151 -> 1153 ;
1154 [label="mse = 0.0\nsamples = 1\nvalue = 0.108"] ;
1136 -> 1154 ;
1155 [label="X[3] <= 0.212\nmse = 0.0\nsamples = 2\nvalue = 0.086"] ;
1135 -> 1155 ;
1156 [label="mse = 0.0\nsamples = 1\nvalue = 0.077"] ;
1155 -> 1156 ;
1157 [label="mse = 0.0\nsamples = 1\nvalue = 0.094"] ;
1155 -> 1157 ;
1158 [label="X[6] <= 0.499\nmse = 0.002\nsamples = 42\nvalue = 0.067"] ;
1110 -> 1158 ;
1159 [label="X[1] <= 0.544\nmse = 0.002\nsamples = 36\nvalue = 0.071"] ;
1158 -> 1159 ;
1160 [label="X[1] <= 0.478\nmse = 0.002\nsamples = 29\nvalue = 0.075"] ;
1159 -> 1160 ;
1161 [label="X[2] <= 0.482\nmse = 0.003\nsamples = 4\nvalue = 0.108"] ;
1160 -> 1161 ;
1162 [label="X[5] <= 0.155\nmse = 0.0\nsamples = 2\nvalue = 0.15"] ;
1161 -> 1162 ;
1163 [label="mse = 0.0\nsamples = 1\nvalue = 0.131"] ;
1162 -> 1163 ;
1164 [label="mse = -0.0\nsamples = 1\nvalue = 0.17"] ;
1162 -> 1164 ;
1165 [label="X[0] <= 0.498\nmse = 0.001\nsamples = 2\nvalue = 0.066"] ;
1161 -> 1165 ;
1166 [label="mse = 0.0\nsamples = 1\nvalue = 0.028"] ;
1165 -> 1166 ;
1167 [label="mse = 0.0\nsamples = 1\nvalue = 0.104"] ;
1165 -> 1167 ;
1168 [label="X[0] <= 0.59\nmse = 0.002\nsamples = 25\nvalue = 0.07"] ;
1160 -> 1168 ;
1169 [label="X[5] <= 0.175\nmse = 0.001\nsamples = 18\nvalue = 0.064"] ;
1168 -> 1169 ;
1170 [label="X[3] <= 0.209\nmse = 0.001\nsamples = 9\nvalue = 0.054"] ;
1169 -> 1170 ;
1171 [label="X[6] <= 0.471\nmse = 0.0\nsamples = 7\nvalue = 0.045"] ;
1170 -> 1171 ;
1172 [label="mse = 0.0\nsamples = 2\nvalue = 0.036"] ;
1171 -> 1172 ;
1173 [label="mse = 0.001\nsamples = 5\nvalue = 0.049"] ;
1171 -> 1173 ;
1174 [label="X[1] <= 0.518\nmse = 0.0\nsamples = 2\nvalue = 0.086"] ;
1170 -> 1174 ;
1175 [label="mse = 0.0\nsamples = 1\nvalue = 0.097"] ;
1174 -> 1175 ;
1176 [label="mse = 0.0\nsamples = 1\nvalue = 0.074"] ;
1174 -> 1176 ;
1177 [label="X[3] <= 0.286\nmse = 0.002\nsamples = 9\nvalue = 0.073"] ;
1169 -> 1177 ;
1178 [label="X[1] <= 0.519\nmse = 0.001\nsamples = 8\nvalue = 0.065"] ;
1177 -> 1178 ;
1179 [label="mse = 0.001\nsamples = 7\nvalue = 0.06"] ;
1178 -> 1179 ;
1180 [label="mse = -0.0\nsamples = 1\nvalue = 0.101"] ;
1178 -> 1180 ;
1181 [label="mse = 0.0\nsamples = 1\nvalue = 0.135"] ;
1177 -> 1181 ;
1182 [label="X[0] <= 0.593\nmse = 0.002\nsamples = 7\nvalue = 0.085"] ;
1168 -> 1182 ;
1183 [label="mse = 0.0\nsamples = 1\nvalue = 0.031"] ;
1182 -> 1183 ;
1184 [label="X[5] <= 0.22\nmse = 0.002\nsamples = 6\nvalue = 0.094"] ;
1182 -> 1184 ;
1185 [label="mse = 0.0\nsamples = 1\nvalue = 0.033"] ;
1184 -> 1185 ;
1186 [label="X[3] <= 0.287\nmse = 0.002\nsamples = 5\nvalue = 0.106"] ;
1184 -> 1186 ;
1187 [label="mse = 0.001\nsamples = 3\nvalue = 0.134"] ;
1186 -> 1187 ;
1188 [label="mse = 0.0\nsamples = 2\nvalue = 0.064"] ;
1186 -> 1188 ;
1189 [label="X[6] <= 0.485\nmse = 0.0\nsamples = 7\nvalue = 0.057"] ;
1159 -> 1189 ;
1190 [label="X[6] <= 0.484\nmse = 0.0\nsamples = 3\nvalue = 0.043"] ;
1189 -> 1190 ;
1191 [label="X[1] <= 0.575\nmse = 0.0\nsamples = 2\nvalue = 0.033"] ;
1190 -> 1191 ;
1192 [label="mse = 0.0\nsamples = 1\nvalue = 0.031"] ;
1191 -> 1192 ;
1193 [label="mse = 0.0\nsamples = 1\nvalue = 0.034"] ;
1191 -> 1193 ;
1194 [label="mse = 0.0\nsamples = 1\nvalue = 0.064"] ;
1190 -> 1194 ;
1195 [label="X[2] <= 0.509\nmse = 0.0\nsamples = 4\nvalue = 0.067"] ;
1189 -> 1195 ;
1196 [label="X[0] <= 0.561\nmse = 0.0\nsamples = 2\nvalue = 0.075"] ;
1195 -> 1196 ;
1197 [label="mse = 0.0\nsamples = 1\nvalue = 0.06"] ;
1196 -> 1197 ;
1198 [label="mse = 0.0\nsamples = 1\nvalue = 0.091"] ;
1196 -> 1198 ;
1199 [label="X[5] <= 0.151\nmse = 0.0\nsamples = 2\nvalue = 0.06"] ;
1195 -> 1199 ;
1200 [label="mse = 0.0\nsamples = 1\nvalue = 0.062"] ;
1199 -> 1200 ;
1201 [label="mse = -0.0\nsamples = 1\nvalue = 0.058"] ;
1199 -> 1201 ;
1202 [label="X[3] <= 0.188\nmse = 0.0\nsamples = 6\nvalue = 0.041"] ;
1158 -> 1202 ;
1203 [label="mse = 0.0\nsamples = 1\nvalue = 0.054"] ;
1202 -> 1203 ;
1204 [label="X[5] <= 0.43\nmse = 0.0\nsamples = 5\nvalue = 0.038"] ;
1202 -> 1204 ;
1205 [label="X[1] <= 0.501\nmse = 0.0\nsamples = 4\nvalue = 0.034"] ;
1204 -> 1205 ;
1206 [label="X[2] <= 0.482\nmse = 0.0\nsamples = 2\nvalue = 0.026"] ;
1205 -> 1206 ;
1207 [label="mse = 0.0\nsamples = 1\nvalue = 0.026"] ;
1206 -> 1207 ;
1208 [label="mse = 0.0\nsamples = 1\nvalue = 0.026"] ;
1206 -> 1208 ;
1209 [label="X[0] <= 0.539\nmse = 0.0\nsamples = 2\nvalue = 0.041"] ;
1205 -> 1209 ;
1210 [label="mse = 0.0\nsamples = 1\nvalue = 0.026"] ;
1209 -> 1210 ;
1211 [label="mse = 0.0\nsamples = 1\nvalue = 0.056"] ;
1209 -> 1211 ;
1212 [label="mse = -0.0\nsamples = 1\nvalue = 0.056"] ;
1204 -> 1212 ;
1213 [label="X[1] <= 0.463\nmse = 0.0\nsamples = 2\nvalue = 0.028"] ;
1109 -> 1213 ;
1214 [label="mse = 0.0\nsamples = 1\nvalue = 0.027"] ;
1213 -> 1214 ;
1215 [label="mse = -0.0\nsamples = 1\nvalue = 0.029"] ;
1213 -> 1215 ;
1216 [label="X[5] <= 0.377\nmse = 0.001\nsamples = 14\nvalue = 0.075"] ;
1108 -> 1216 ;
1217 [label="X[5] <= 0.302\nmse = 0.0\nsamples = 3\nvalue = 0.031"] ;
1216 -> 1217 ;
1218 [label="mse = 0.0\nsamples = 1\nvalue = 0.029"] ;
1217 -> 1218 ;
1219 [label="X[1] <= 0.431\nmse = 0.0\nsamples = 2\nvalue = 0.032"] ;
1217 -> 1219 ;
1220 [label="mse = 0.0\nsamples = 1\nvalue = 0.031"] ;
1219 -> 1220 ;
1221 [label="mse = 0.0\nsamples = 1\nvalue = 0.033"] ;
1219 -> 1221 ;
1222 [label="X[0] <= 0.49\nmse = 0.001\nsamples = 11\nvalue = 0.086"] ;
1216 -> 1222 ;
1223 [label="X[5] <= 0.409\nmse = 0.001\nsamples = 5\nvalue = 0.069"] ;
1222 -> 1223 ;
1224 [label="mse = 0.0\nsamples = 1\nvalue = 0.101"] ;
1223 -> 1224 ;
1225 [label="X[4] <= 0.839\nmse = 0.0\nsamples = 4\nvalue = 0.061"] ;
1223 -> 1225 ;
1226 [label="mse = 0.0\nsamples = 1\nvalue = 0.033"] ;
1225 -> 1226 ;
1227 [label="X[1] <= 0.359\nmse = 0.0\nsamples = 3\nvalue = 0.07"] ;
1225 -> 1227 ;
1228 [label="mse = 0.0\nsamples = 1\nvalue = 0.088"] ;
1227 -> 1228 ;
1229 [label="X[5] <= 0.448\nmse = 0.0\nsamples = 2\nvalue = 0.061"] ;
1227 -> 1229 ;
1230 [label="mse = 0.0\nsamples = 1\nvalue = 0.053"] ;
1229 -> 1230 ;
1231 [label="mse = 0.0\nsamples = 1\nvalue = 0.069"] ;
1229 -> 1231 ;
1232 [label="X[3] <= 0.493\nmse = 0.001\nsamples = 6\nvalue = 0.101"] ;
1222 -> 1232 ;
1233 [label="X[3] <= 0.412\nmse = 0.001\nsamples = 5\nvalue = 0.11"] ;
1232 -> 1233 ;
1234 [label="X[5] <= 0.469\nmse = 0.0\nsamples = 2\nvalue = 0.077"] ;
1233 -> 1234 ;
1235 [label="mse = 0.0\nsamples = 1\nvalue = 0.085"] ;
1234 -> 1235 ;
1236 [label="mse = -0.0\nsamples = 1\nvalue = 0.069"] ;
1234 -> 1236 ;
1237 [label="X[6] <= 0.492\nmse = 0.0\nsamples = 3\nvalue = 0.132"] ;
1233 -> 1237 ;
1238 [label="mse = 0.0\nsamples = 2\nvalue = 0.126"] ;
1237 -> 1238 ;
1239 [label="mse = 0.0\nsamples = 1\nvalue = 0.144"] ;
1237 -> 1239 ;
1240 [label="mse = -0.0\nsamples = 1\nvalue = 0.056"] ;
1232 -> 1240 ;
1241 [label="X[0] <= 0.489\nmse = 0.004\nsamples = 4\nvalue = 0.093"] ;
1107 -> 1241 ;
1242 [label="X[6] <= 0.495\nmse = 0.003\nsamples = 2\nvalue = 0.139"] ;
1241 -> 1242 ;
1243 [label="mse = 0.0\nsamples = 1\nvalue = 0.19"] ;
1242 -> 1243 ;
1244 [label="mse = -0.0\nsamples = 1\nvalue = 0.088"] ;
1242 -> 1244 ;
1245 [label="X[3] <= 0.204\nmse = 0.0\nsamples = 2\nvalue = 0.047"] ;
1241 -> 1245 ;
1246 [label="mse = 0.0\nsamples = 1\nvalue = 0.026"] ;
1245 -> 1246 ;
1247 [label="mse = 0.0\nsamples = 1\nvalue = 0.069"] ;
1245 -> 1247 ;
1248 [label="X[3] <= 0.269\nmse = 0.001\nsamples = 58\nvalue = 0.053"] ;
1018 -> 1248 ;
1249 [label="X[5] <= 0.161\nmse = 0.001\nsamples = 41\nvalue = 0.057"] ;
1248 -> 1249 ;
1250 [label="X[3] <= 0.195\nmse = 0.002\nsamples = 29\nvalue = 0.054"] ;
1249 -> 1250 ;
1251 [label="X[6] <= 0.47\nmse = 0.002\nsamples = 3\nvalue = 0.074"] ;
1250 -> 1251 ;
1252 [label="mse = 0.0\nsamples = 1\nvalue = 0.134"] ;
1251 -> 1252 ;
1253 [label="X[5] <= 0.127\nmse = 0.0\nsamples = 2\nvalue = 0.044"] ;
1251 -> 1253 ;
1254 [label="mse = 0.0\nsamples = 1\nvalue = 0.056"] ;
1253 -> 1254 ;
1255 [label="mse = -0.0\nsamples = 1\nvalue = 0.033"] ;
1253 -> 1255 ;
1256 [label="X[1] <= 0.49\nmse = 0.001\nsamples = 26\nvalue = 0.051"] ;
1250 -> 1256 ;
1257 [label="X[5] <= 0.109\nmse = 0.003\nsamples = 10\nvalue = 0.06"] ;
1256 -> 1257 ;
1258 [label="X[5] <= 0.065\nmse = 0.0\nsamples = 7\nvalue = 0.044"] ;
1257 -> 1258 ;
1259 [label="X[1] <= 0.473\nmse = 0.001\nsamples = 3\nvalue = 0.058"] ;
1258 -> 1259 ;
1260 [label="X[0] <= 0.619\nmse = 0.0\nsamples = 2\nvalue = 0.072"] ;
1259 -> 1260 ;
1261 [label="mse = 0.0\nsamples = 1\nvalue = 0.062"] ;
1260 -> 1261 ;
1262 [label="mse = 0.0\nsamples = 1\nvalue = 0.083"] ;
1260 -> 1262 ;
1263 [label="mse = 0.0\nsamples = 1\nvalue = 0.028"] ;
1259 -> 1263 ;
1264 [label="X[6] <= 0.47\nmse = 0.0\nsamples = 4\nvalue = 0.034"] ;
1258 -> 1264 ;
1265 [label="X[5] <= 0.072\nmse = 0.0\nsamples = 2\nvalue = 0.041"] ;
1264 -> 1265 ;
1266 [label="mse = 0.0\nsamples = 1\nvalue = 0.045"] ;
1265 -> 1266 ;
1267 [label="mse = -0.0\nsamples = 1\nvalue = 0.037"] ;
1265 -> 1267 ;
1268 [label="X[4] <= 0.869\nmse = 0.0\nsamples = 2\nvalue = 0.028"] ;
1264 -> 1268 ;
1269 [label="mse = 0.0\nsamples = 1\nvalue = 0.026"] ;
1268 -> 1269 ;
1270 [label="mse = 0.0\nsamples = 1\nvalue = 0.029"] ;
1268 -> 1270 ;
1271 [label="X[2] <= 0.48\nmse = 0.007\nsamples = 3\nvalue = 0.097"] ;
1257 -> 1271 ;
1272 [label="X[0] <= 0.639\nmse = 0.0\nsamples = 2\nvalue = 0.037"] ;
1271 -> 1272 ;
1273 [label="mse = 0.0\nsamples = 1\nvalue = 0.039"] ;
1272 -> 1273 ;
1274 [label="mse = 0.0\nsamples = 1\nvalue = 0.035"] ;
1272 -> 1274 ;
1275 [label="mse = 0.0\nsamples = 1\nvalue = 0.216"] ;
1271 -> 1275 ;
1276 [label="X[5] <= 0.088\nmse = 0.0\nsamples = 16\nvalue = 0.046"] ;
1256 -> 1276 ;
1277 [label="X[4] <= 0.887\nmse = 0.0\nsamples = 8\nvalue = 0.052"] ;
1276 -> 1277 ;
1278 [label="X[4] <= 0.856\nmse = 0.0\nsamples = 2\nvalue = 0.034"] ;
1277 -> 1278 ;
1279 [label="mse = 0.0\nsamples = 1\nvalue = 0.041"] ;
1278 -> 1279 ;
1280 [label="mse = -0.0\nsamples = 1\nvalue = 0.028"] ;
1278 -> 1280 ;
1281 [label="X[5] <= 0.059\nmse = 0.0\nsamples = 6\nvalue = 0.058"] ;
1277 -> 1281 ;
1282 [label="X[1] <= 0.544\nmse = 0.0\nsamples = 2\nvalue = 0.036"] ;
1281 -> 1282 ;
1283 [label="mse = 0.0\nsamples = 1\nvalue = 0.031"] ;
1282 -> 1283 ;
1284 [label="mse = 0.0\nsamples = 1\nvalue = 0.041"] ;
1282 -> 1284 ;
1285 [label="X[2] <= 0.546\nmse = 0.0\nsamples = 4\nvalue = 0.069"] ;
1281 -> 1285 ;
1286 [label="X[1] <= 0.546\nmse = 0.0\nsamples = 3\nvalue = 0.078"] ;
1285 -> 1286 ;
1287 [label="mse = 0.0\nsamples = 1\nvalue = 0.091"] ;
1286 -> 1287 ;
1288 [label="X[4] <= 0.929\nmse = 0.0\nsamples = 2\nvalue = 0.072"] ;
1286 -> 1288 ;
1289 [label="mse = 0.0\nsamples = 1\nvalue = 0.066"] ;
1288 -> 1289 ;
1290 [label="mse = -0.0\nsamples = 1\nvalue = 0.077"] ;
1288 -> 1290 ;
1291 [label="mse = -0.0\nsamples = 1\nvalue = 0.042"] ;
1285 -> 1291 ;
1292 [label="X[4] <= 0.893\nmse = 0.0\nsamples = 8\nvalue = 0.04"] ;
1276 -> 1292 ;
1293 [label="X[0] <= 0.687\nmse = 0.0\nsamples = 6\nvalue = 0.045"] ;
1292 -> 1293 ;
1294 [label="X[5] <= 0.117\nmse = 0.0\nsamples = 4\nvalue = 0.05"] ;
1293 -> 1294 ;
1295 [label="X[2] <= 0.528\nmse = 0.0\nsamples = 2\nvalue = 0.036"] ;
1294 -> 1295 ;
1296 [label="mse = 0.0\nsamples = 1\nvalue = 0.034"] ;
1295 -> 1296 ;
1297 [label="mse = 0.0\nsamples = 1\nvalue = 0.039"] ;
1295 -> 1297 ;
1298 [label="X[6] <= 0.491\nmse = 0.0\nsamples = 2\nvalue = 0.064"] ;
1294 -> 1298 ;
1299 [label="mse = 0.0\nsamples = 1\nvalue = 0.069"] ;
1298 -> 1299 ;
1300 [label="mse = 0.0\nsamples = 1\nvalue = 0.06"] ;
1298 -> 1300 ;
1301 [label="X[2] <= 0.518\nmse = 0.0\nsamples = 2\nvalue = 0.033"] ;
1293 -> 1301 ;
1302 [label="mse = 0.0\nsamples = 1\nvalue = 0.039"] ;
1301 -> 1302 ;
1303 [label="mse = -0.0\nsamples = 1\nvalue = 0.028"] ;
1301 -> 1303 ;
1304 [label="X[5] <= 0.101\nmse = 0.0\nsamples = 2\nvalue = 0.025"] ;
1292 -> 1304 ;
1305 [label="mse = 0.0\nsamples = 1\nvalue = 0.025"] ;
1304 -> 1305 ;
1306 [label="mse = 0.0\nsamples = 1\nvalue = 0.026"] ;
1304 -> 1306 ;
1307 [label="X[3] <= 0.239\nmse = 0.0\nsamples = 12\nvalue = 0.065"] ;
1249 -> 1307 ;
1308 [label="X[5] <= 0.268\nmse = 0.0\nsamples = 11\nvalue = 0.062"] ;
1307 -> 1308 ;
1309 [label="X[1] <= 0.502\nmse = 0.0\nsamples = 3\nvalue = 0.052"] ;
1308 -> 1309 ;
1310 [label="mse = 0.0\nsamples = 1\nvalue = 0.028"] ;
1309 -> 1310 ;
1311 [label="X[1] <= 0.517\nmse = 0.0\nsamples = 2\nvalue = 0.064"] ;
1309 -> 1311 ;
1312 [label="mse = 0.0\nsamples = 1\nvalue = 0.054"] ;
1311 -> 1312 ;
1313 [label="mse = 0.0\nsamples = 1\nvalue = 0.074"] ;
1311 -> 1313 ;
1314 [label="X[1] <= 0.497\nmse = 0.0\nsamples = 8\nvalue = 0.066"] ;
1308 -> 1314 ;
1315 [label="X[0] <= 0.647\nmse = 0.0\nsamples = 2\nvalue = 0.08"] ;
1314 -> 1315 ;
